{"features.0.weight": [[-0.602020263671875, -0.00968267023563385, -0.130783811211586, -0.0686962902545929, -0.38721945881843567, -0.16345378756523132, 0.05741359293460846, 0.030353356152772903, -0.2774205505847931, 0.09580888599157333, 0.09488868713378906, -0.037130773067474365, -0.045842692255973816, -0.1656460016965866, -0.10337338596582413, 0.004312873352319002, 0.0699060708284378, -0.09186933189630508, 0.1519077718257904, -0.17200657725334167, -0.049007199704647064, 0.38716068863868713, 0.27202558517456055, 0.20339283347129822, 0.11848314851522446, -0.02909456379711628, -0.17217816412448883, -0.04605535417795181, -0.058308932930231094], [-0.06502891331911087, 0.24338006973266602, -0.22079378366470337, 0.13303841650485992, 0.10541203618049622, 0.06367774307727814, 0.013027436099946499, 0.06367728859186172, -0.162551611661911, -0.11033084243535995, -0.11008831113576889, -0.21379947662353516, 0.023719429969787598, 0.046270426362752914, 0.09364357590675354, -0.005846063140779734, -0.00903099775314331, -0.1588524878025055, -0.15133023262023926, 0.27603664994239807, -0.4133123755455017, 0.06147554889321327, 0.20652316510677338, -0.13997749984264374, -0.22319358587265015, -0.1040918156504631, -0.08489431440830231, -0.16438259184360504, -0.2746782600879669], [0.017874710261821747, -0.02219848893582821, -0.005010111723095179, -0.00029415643075481057, -0.01523798517882824, -0.12265071272850037, -0.1123819351196289, -0.1107930839061737, -0.07024137675762177, -0.13842692971229553, -0.2085016369819641, -0.0189780592918396, 0.23194774985313416, 0.12874256074428558, 0.09016182273626328, 0.11910571157932281, 0.038729894906282425, 0.08510730415582657, -0.13325238227844238, -0.17797590792179108, -0.012362156063318253, 0.08518581837415695, -0.1617739051580429, 0.01777811162173748, 0.0729295015335083, 0.09250625222921371, 0.09760821610689163, 0.19051192700862885, 0.23890715837478638], [-0.03464088961482048, -0.06812328845262527, 0.13692247867584229, 0.04142487049102783, -0.003323982236906886, -0.11005985736846924, 0.015068907290697098, -0.10672473907470703, 0.12982559204101562, 0.4478577673435211, 0.30526241660118103, 0.10084132105112076, 0.037693388760089874, -0.15522541105747223, -0.0875818133354187, -0.1854202151298523, -0.09403347223997116, -0.23273323476314545, -0.10265801101922989, -0.19770744442939758, 0.3398911654949188, 0.21397514641284943, 0.05045975744724274, 0.12952083349227905, 0.0787932351231575, -0.13998031616210938, -0.030354883521795273, -0.020610978826880455, 0.03377646207809448], [-0.0729386955499649, -0.07452483475208282, -0.04599354416131973, -0.07954084128141403, -0.14731894433498383, -0.03510645776987076, -0.054359760135412216, -0.3630862534046173, 0.3564799129962921, -0.03454681858420372, 0.09654676169157028, -0.06718239188194275, -0.02986280433833599, 0.27985551953315735, -0.021949518471956253, -0.16881804168224335, -0.1680186539888382, 0.5097935795783997, -0.015101305209100246, 0.019319182261824608, 0.15828169882297516, 0.15546861290931702, 0.17920468747615814, 0.15941204130649567, 0.19467473030090332, 0.07569989562034607, 0.051998917013406754, -0.01484686229377985, -0.01865026354789734], [-0.01686406135559082, 0.09101586788892746, 0.040720194578170776, 0.09038352221250534, 0.05715315416455269, 0.09649711847305298, 0.12909579277038574, 0.3578134775161743, 0.22208884358406067, 0.25232765078544617, 0.17296668887138367, 0.06513150036334991, 0.041953351348638535, -0.06986314058303833, -0.18199889361858368, -0.16347530484199524, -0.050890032202005386, -0.2944318354129791, -0.09092502295970917, -0.04273071140050888, -0.09189823269844055, -0.0490126870572567, -0.1691596508026123, -0.12461412698030472, -0.09953925758600235, 0.01851065270602703, 0.1265418827533722, 0.2374732941389084, 0.12302456796169281], [-0.17767398059368134, 0.10330080986022949, -0.03606385365128517, -0.10432654619216919, -0.18396221101284027, 0.006862766109406948, -0.10251650959253311, -0.22069810330867767, 0.19016602635383606, 0.1879480481147766, 0.14615048468112946, 0.03096170350909233, -0.07295209169387817, -0.28954604268074036, -0.17334677278995514, 0.06465164572000504, 0.1814221888780594, 0.19336919486522675, -0.030539432540535927, -0.02123359777033329, 0.13108861446380615, 0.1494787633419037, 0.03466527536511421, 0.018743153661489487, -0.09711097925901413, -0.06304352730512619, -0.10448866337537766, -0.035875141620635986, -0.1242125853896141], [0.0632714033126831, -0.40183112025260925, 0.08862520754337311, 0.11446165293455124, 0.0713294968008995, -0.0885527953505516, -0.09431018680334091, 0.09696198999881744, 0.2634696364402771, 0.10165631026029587, -0.025944935157895088, -0.02220282331109047, 0.02728300355374813, 0.10488276183605194, -0.09909805655479431, 0.2507709562778473, 0.1332460641860962, -0.14329934120178223, 0.03751309588551521, 0.2043154090642929, 0.03928860276937485, 0.35973191261291504, 0.34681639075279236, -0.08674638718366623, -0.23723375797271729, -0.313480943441391, -0.31540554761886597, -0.2341633141040802, -0.017569849267601967], [-0.023401200771331787, 0.29131823778152466, -0.004714876413345337, 0.07114512473344803, 0.14197146892547607, 0.18747980892658234, 0.14877402782440186, 0.004100033547729254, 0.0163752231746912, -0.1269000619649887, -0.13165819644927979, 0.03144020959734917, 0.03052450157701969, 0.022542521357536316, -0.19057205319404602, 0.08222585916519165, 0.23310892283916473, 0.18349899351596832, 0.32605013251304626, 0.20656998455524445, 0.560430109500885, 0.084000363945961, -0.15465804934501648, 0.2296430617570877, 0.15915828943252563, 0.0932823047041893, -0.08338245004415512, -0.331424355506897, -0.2584809362888336], [0.07638067752122879, 0.11494720727205276, -0.27952659130096436, 0.11436909437179565, 0.2671298384666443, 0.10995502769947052, 0.18795932829380035, -0.18489333987236023, 0.21523895859718323, 0.3428325057029724, 0.18339163064956665, 0.1646624505519867, 0.169264018535614, 0.08175047487020493, -0.08054184168577194, 0.2355467677116394, 0.3335939347743988, 0.26970842480659485, -0.08101652562618256, 0.06772362440824509, 0.28054195642471313, 0.12903042137622833, 0.06729308515787125, -0.006808686535805464, 0.07911773771047592, 0.15374712646007538, 0.16565825045108795, 0.125233992934227, 0.2899112105369568], [-0.03569302707910538, 0.08776267617940903, 0.3254339098930359, -0.09943447262048721, -0.5937498807907104, -0.27203860878944397, 0.08508919924497604, -0.14779993891716003, 0.07831700891256332, -0.6545471549034119, -0.4550231397151947, -0.5018129348754883, -0.41845130920410156, -0.48618414998054504, 0.17986033856868744, 0.023431213572621346, 0.1962289661169052, 0.22729606926441193, -0.06479833275079727, 0.04082655906677246, 0.1205189973115921, 0.1763906627893448, 0.1084754467010498, -0.29892417788505554, -0.27225029468536377, -0.40715527534484863, 0.02056819573044777, -0.30493149161338806, -0.20489419996738434], [0.03438563644886017, -0.017647068947553635, 0.010374254547059536, 0.01892268843948841, -0.04108346626162529, 0.09842315316200256, 0.07789666950702667, -0.20531299710273743, 0.08227016031742096, -0.03608263283967972, -0.052284836769104004, -0.07067204266786575, 0.11929689347743988, -0.022681662812829018, 0.014336549676954746, 0.2433995008468628, 0.17080214619636536, -0.3562723696231842, 0.32152992486953735, -0.20422481000423431, -0.7181940674781799, -0.09598157554864883, 0.01770828664302826, -0.24633324146270752, -0.0776522234082222, 0.01762385666370392, 0.028267379850149155, 0.04582827910780907, 0.06395082920789719], [0.07905974239110947, -0.01857820525765419, 0.001961721573024988, 0.005816047545522451, -0.06438984721899033, -0.09250946342945099, -0.0841367319226265, 0.3891359567642212, 0.41866961121559143, 0.07520768791437149, 0.001425911788828671, -0.12201603502035141, -0.02166634611785412, -0.042295001447200775, 0.03458934649825096, 0.06813985854387283, 0.05368802696466446, 0.5346393585205078, 0.3228827118873596, -0.3613881468772888, 0.37465980648994446, 0.05239438638091087, -0.12487658858299255, -0.1767817735671997, -0.08152535557746887, 0.07496444880962372, 0.023173924535512924, -0.036914195865392685, -0.18081577122211456], [0.12467512488365173, 0.01236443780362606, 0.1855851411819458, 0.11120328307151794, 0.073906309902668, 0.031156403943896294, 0.05721823126077652, -0.09169203042984009, -0.2854440212249756, 0.22003024816513062, 0.12369735538959503, -0.05111243203282356, 0.049203310161828995, -0.0328940823674202, -0.13610805571079254, -0.03518727049231529, -0.21702782809734344, 0.5706220865249634, 0.006639066152274609, 0.302735298871994, -0.3355206847190857, 0.039099615067243576, 0.30959436297416687, -0.005964404903352261, -0.05310770496726036, -0.020271355286240578, -0.031141959130764008, -0.13478535413742065, -0.10395818948745728], [0.3389127850532532, -0.22457681596279144, -0.04376266896724701, 0.0633431077003479, 0.16273720562458038, 0.19448117911815643, 0.2163729965686798, 0.3374032974243164, -0.022973038256168365, 0.03612092509865761, -0.13216416537761688, -0.1295381635427475, 0.003424166701734066, 0.17820195853710175, 0.2573096454143524, 0.20004519820213318, 0.15765666961669922, -0.10574628412723541, -0.050146836787462234, -0.06625593453645706, -0.11882832646369934, 0.13324853777885437, -0.006848256569355726, 0.09095608443021774, 0.21887443959712982, 0.02024102583527565, -0.0075651719234883785, 0.014642066322267056, 0.07919679582118988], [-0.09969006478786469, 0.07852469384670258, 0.09190241247415543, 0.0025965662207454443, -0.04888812452554703, 0.0641859620809555, 0.06467953324317932, 0.46716058254241943, 0.2831457853317261, 0.12774573266506195, 0.13623033463954926, 0.1271054744720459, 0.07708258926868439, -0.27467596530914307, -0.01133264135569334, -0.16034702956676483, -0.33619225025177, 0.22290290892124176, -0.04366125166416168, 0.02348981238901615, -0.00038861221401020885, 0.08145846426486969, 0.022797487676143646, 0.18081457912921906, 0.06054272502660751, -0.058709606528282166, -0.16076433658599854, -0.1125306561589241, 0.04294925928115845], [0.04861468821763992, 0.07956501841545105, 0.050945837050676346, 0.05222135782241821, -0.2106076329946518, 0.03834274038672447, 0.017003556713461876, 0.16297051310539246, 0.2845994532108307, 0.14792342483997345, 0.09818631410598755, -0.013134981505572796, -0.15727917850017548, -0.12150983512401581, 0.09609126299619675, 0.19528894126415253, 0.08464467525482178, -0.16309131681919098, -0.14908644556999207, -0.11761313676834106, -0.08809763938188553, 0.027234109118580818, 0.23424002528190613, 0.049772150814533234, -0.08899809420108795, -0.05746208876371384, 0.0006394589436240494, -0.03785887733101845, 0.004373278468847275], [-0.1476803570985794, 0.02695024013519287, 0.061636682599782944, 0.07593964040279388, -0.12605713307857513, 0.07919938862323761, 0.11982133984565735, 0.23136261105537415, -0.1567051261663437, -0.12351518869400024, -0.11255642771720886, -0.09850507229566574, -0.1439516395330429, 0.05322201922535896, 0.09007821977138519, 0.010235547088086605, -0.22381803393363953, 0.06037621200084686, -0.25120821595191956, 0.13791750371456146, -0.3237953782081604, -0.24270004034042358, 0.002381489612162113, -0.17312060296535492, -0.09230165928602219, -0.15106074512004852, 0.09213601052761078, 0.009771379642188549, -0.007625847589224577], [0.0477808378636837, 0.06241618096828461, 0.0705217495560646, -0.06534643471240997, -0.12554584443569183, -0.18115127086639404, -0.14535096287727356, 0.013133551925420761, 0.17880292236804962, -0.11861202120780945, -0.009153805673122406, -0.053758107125759125, -0.23220732808113098, -0.038708288222551346, 0.11420152336359024, -0.27981361746788025, -0.35423970222473145, -0.006392589770257473, -0.13509930670261383, -0.03926289081573486, -0.5371456146240234, -0.043136466294527054, 0.09209752827882767, -0.08441417664289474, 0.047187745571136475, 0.07848822325468063, 0.12500637769699097, 0.13973838090896606, 0.2166009545326233], [-0.13226868212223053, 0.08937861770391464, -0.08744271099567413, -0.14777931571006775, -0.19682537019252777, -0.07724446803331375, -0.027171142399311066, -0.20812395215034485, -0.006258359178900719, 0.1113903820514679, 0.135091632604599, 0.22321294248104095, 0.29577887058258057, 0.12326480448246002, -0.3960471451282501, 0.08347515016794205, -0.06694714725017548, -0.24818021059036255, 0.02905450575053692, -0.009378563612699509, 0.055419184267520905, -0.16721102595329285, 0.039973221719264984, -0.091143399477005, 0.19444191455841064, 0.3961264491081238, -0.002959741745144129, 0.08601360023021698, 0.07280437648296356], [0.04437203332781792, 0.2072789967060089, 0.23335148394107819, 0.21913492679595947, 0.13776493072509766, -0.06260449439287186, 0.04894452914595604, -0.08645875006914139, 0.3031993806362152, -0.014907821081578732, 0.03656848147511482, 0.02274198830127716, -0.015111480839550495, -0.08409164845943451, 0.09692594408988953, 0.0010250868508592248, -0.07343503832817078, 0.020368818193674088, 0.31444039940834045, -0.26961228251457214, 0.37342846393585205, -0.3464677035808563, -0.2500964403152466, -0.08039932698011398, -0.051152683794498444, 0.029820861294865608, 0.23017731308937073, 0.11650159955024719, 0.021949799731373787], [-0.024262523278594017, 0.005303173325955868, -0.04594782739877701, -0.0652598887681961, -0.1487744152545929, -0.08926457911729813, -0.030543934553861618, 0.05438265949487686, -0.08359751850366592, 0.0007209961186163127, 0.04586641862988472, 0.09584006667137146, -0.07647500932216644, 0.03961478918790817, 0.06355854868888855, 0.05693173408508301, 0.06292899698019028, 0.25319719314575195, -0.3213742971420288, 0.292670339345932, 0.27962520718574524, 0.23101048171520233, -0.07969636470079422, -0.007876665331423283, -0.45621782541275024, 0.08301092684268951, -0.04869759455323219, -0.04835902899503708, 0.14348448812961578], [0.029283037409186363, 0.19366192817687988, 0.08145175129175186, 0.11176720261573792, -0.03144041821360588, 0.18785817921161652, 0.13385577499866486, 0.3012157082557678, -0.03315681591629982, 0.17761018872261047, 0.1503974348306656, 0.01648416742682457, -0.20559583604335785, -0.06491617858409882, -0.1934979110956192, 0.030329274013638496, 0.1314529925584793, 0.1417044699192047, 0.32300135493278503, 0.4809366464614868, -0.02510944940149784, -0.22028130292892456, 0.06029060110449791, 0.004084150306880474, 0.10525238513946533, 0.056171298027038574, -0.11822063475847244, 0.054349496960639954, 0.0756768062710762], [0.07303017377853394, 0.15458449721336365, -0.02349419705569744, -0.006566070485860109, -0.07826057821512222, 0.15663421154022217, 0.027909746393561363, -0.12202361971139908, -0.25921422243118286, 0.035893604159355164, -0.04931334778666496, -0.04642258957028389, 0.11219212412834167, -0.017188195139169693, -0.14661863446235657, -0.12811876833438873, 0.2801532745361328, 0.2906439006328583, -0.045273710042238235, 0.3531465232372284, 0.19103150069713593, 0.1462884396314621, 0.023335667327046394, 0.22821475565433502, 0.08878462761640549, 0.1221751943230629, -0.1188003420829773, -0.030125167220830917, -0.019221946597099304], [0.2855408489704132, 0.14438439905643463, 0.0714835375547409, 0.13735602796077728, 0.3232790231704712, 0.11081885546445847, 0.01880500093102455, 0.060704562813043594, 0.1900831013917923, 0.18296416103839874, 0.31056052446365356, 0.2436952292919159, 0.276145875453949, 0.14257408678531647, 0.20493511855602264, 0.16886520385742188, -0.04215594008564949, -0.05037389323115349, 0.16470228135585785, 0.16367463767528534, 0.20728608965873718, 0.159390389919281, 0.47737759351730347, 0.14888499677181244, -0.05228778347373009, -0.07969024032354355, 0.11102987080812454, 0.1270068734884262, 0.07530836015939713], [0.04803597554564476, 0.1320774406194687, 0.061468105763196945, 0.035043492913246155, 0.06105890870094299, -0.06357964873313904, -0.07773273438215256, -0.0896184965968132, 0.2957190275192261, 0.21610446274280548, 0.1510237157344818, 0.08214505761861801, 0.039112165570259094, 0.06749321520328522, 0.10409299284219742, 0.2848209738731384, 0.19466657936573029, -0.23686803877353668, -0.21969105303287506, 0.24761982262134552, 0.05026481673121452, -0.3548816442489624, -0.16739769279956818, 0.12252683937549591, 0.2197713553905487, 0.24194562435150146, 0.03493701294064522, -0.0019521904177963734, -0.03402324020862579], [0.2079632580280304, -0.507356584072113, -0.07916879653930664, 0.03890753164887428, 0.3701860308647156, -0.035375796258449554, -0.0604969821870327, -0.0071019441820681095, -0.25682902336120605, -0.23794794082641602, -0.14751459658145905, -0.12422093749046326, -0.05582791566848755, 0.04858473315834999, 0.17096108198165894, 0.0656360387802124, -0.025447886437177658, -0.06371958553791046, -0.14530698955059052, 0.11364364624023438, -0.2332874834537506, -0.14113855361938477, 0.1027713194489479, -0.12771493196487427, -0.08684432506561279, -0.04532914236187935, 0.07799889892339706, -0.3661637008190155, -0.45707887411117554], [0.027814431115984917, -0.13871346414089203, -0.06602945923805237, -0.07551038265228271, -0.046115532517433167, 0.08337932825088501, 0.07501786947250366, 0.18841955065727234, -0.3373570144176483, -0.2203969806432724, -0.09690787643194199, -0.024949872866272926, 0.22593219578266144, -0.055487774312496185, -0.15771663188934326, -0.25080934166908264, -0.1455485224723816, 0.3255837857723236, 0.18471452593803406, -0.09876301139593124, -0.6504737734794617, -0.008970956318080425, 0.07872042804956436, -0.06041867285966873, -0.09333319216966629, 0.06696994602680206, 0.08181808888912201, -0.05440283194184303, -0.050268951803445816], [0.07454583793878555, 0.1491684466600418, 0.07675982266664505, 0.0654168352484703, 0.04994027689099312, 0.038995761424303055, 0.06734102964401245, -0.052778005599975586, -0.11023721843957901, 0.08721508830785751, 0.029264245182275772, 0.004630314651876688, -0.0602356418967247, -0.01275405753403902, 0.18912960588932037, 0.10491380840539932, 0.03767385333776474, 0.2180425524711609, 0.320754736661911, 0.5595021843910217, -0.2748281955718994, -0.17257995903491974, -0.28849339485168457, -0.2568645477294922, -0.046101126819849014, -0.03757711872458458, 0.15458640456199646, 0.1818275898694992, 0.2723780870437622], [-0.06378588825464249, -0.06236373260617256, -0.04142944887280464, -0.03527091443538666, -0.08572826534509659, 0.07847196608781815, 0.08876442164182663, -0.34237292408943176, 0.43920376896858215, 0.08330697566270828, -0.05837602913379669, 0.005117997992783785, 0.029271502047777176, -0.18471693992614746, -0.09692263603210449, -0.025503387674689293, 0.001417262596078217, 0.25916820764541626, -0.004121206700801849, -0.00023367012909147888, 0.08902343362569809, 0.10214945673942566, 0.05682362988591194, 0.08297881484031677, 0.08720991015434265, 0.07584593445062637, 0.08153766393661499, 0.08886557072401047, 0.07944705337285995], [-0.06460065394639969, 0.03216125816106796, -0.10034579783678055, -0.083509661257267, -0.21594317257404327, 0.09601365774869919, 0.0514252744615078, -0.2945392429828644, -0.13504748046398163, 0.10397899895906448, 0.026060152798891068, -0.002055388642475009, -0.07771370559930801, -0.0037521114572882652, 0.01758451759815216, 0.062318358570337296, -0.07235443592071533, -0.024318169802427292, 0.2688964307308197, -0.3372800052165985, 0.08212660998106003, -0.025101415812969208, 0.030594106763601303, 0.21567705273628235, -0.03702810779213905, -0.0762089416384697, 0.09822166711091995, 0.005656685680150986, -0.033452000468969345], [0.05506819114089012, 0.04421902447938919, 0.0027320522349327803, -0.010302422568202019, 0.0007140774396248162, 0.08502127230167389, 0.0883377268910408, -0.14971019327640533, 0.2473946064710617, -0.04409606382250786, -0.01963229663670063, -0.06127837300300598, 0.10391629487276077, -0.08509844541549683, -0.15564030408859253, 0.18991777300834656, 0.31365469098091125, -0.13608846068382263, 0.33908626437187195, 0.378122478723526, 0.004180313553661108, 0.13676898181438446, 0.10167800635099411, -0.2853108048439026, -0.1945580244064331, -0.0516294427216053, -0.01947944611310959, 0.23173286020755768, 0.14208033680915833], [-0.041414614766836166, -0.058685142546892166, -0.030989786610007286, -0.028422068804502487, -0.055608924478292465, -0.051413293927907944, -0.06004944443702698, -0.2883046269416809, 0.22211018204689026, 0.24875468015670776, 0.1551980823278427, 0.1559692919254303, -0.18186481297016144, 0.2793685495853424, 0.02862098626792431, -0.16280853748321533, -0.2994424104690552, 0.018774408847093582, 0.3453863561153412, -0.006522782612591982, 0.36260664463043213, -0.029504498466849327, -0.014761462807655334, -0.21456244587898254, -0.2574431896209717, 0.1020248681306839, 0.04006233438849449, -0.01299293152987957, 0.026605267077684402], [0.05477236956357956, 0.23305083811283112, 0.055642955005168915, 0.052400071173906326, -0.013024813495576382, 0.18478545546531677, 0.12407206743955612, 0.11883310973644257, 0.384344220161438, -0.08336268365383148, -0.019679807126522064, -0.04420711472630501, 0.000646711909212172, 0.01134427823126316, -0.15486693382263184, -0.06461688131093979, -0.038993511348962784, -0.08331621438264847, -0.2383291870355606, -0.323964387178421, 0.031060025095939636, 0.02242167666554451, -0.028589030727744102, -0.016736818477511406, 0.0661613866686821, 0.06133068725466728, -0.016999544575810432, 0.006125434301793575, 0.07784515619277954], [-0.0021579077001661062, 0.23930959403514862, 0.046829111874103546, 0.04015941545367241, 0.0105664674192667, -0.12932740151882172, -0.1480734497308731, 0.07644105702638626, -0.18625418841838837, 0.18336352705955505, 0.21938727796077728, 0.009217526763677597, -0.19119323790073395, -0.1868579238653183, 0.004249010235071182, 0.024326259270310402, -0.15405091643333435, -0.5298271775245667, 0.005427828524261713, -0.010312107391655445, -0.1989791840314865, -0.19891631603240967, -0.1637197583913803, -0.10522229224443436, 0.2032475620508194, 0.2239108830690384, 0.19003808498382568, -0.09437732398509979, -0.05345543101429939], [-0.05571424588561058, -0.04223273694515228, -0.0728406086564064, -0.07179711014032364, -0.07311805337667465, -0.08693952113389969, -0.0925387516617775, 0.8054066300392151, 0.06525008380413055, 0.0010312997037544847, 0.013970247469842434, -0.005779219791293144, 0.23534011840820312, -0.4860645830631256, -0.3939689099788666, 0.053193360567092896, 0.03786444291472435, 0.1238432303071022, -0.16051511466503143, 0.0023602130822837353, -0.1542292684316635, -0.019804803654551506, -0.07453559339046478, -0.0016155731864273548, -0.006492146756500006, 0.054033566266298294, -0.03540115803480148, -0.016944551840424538, -0.02876143530011177], [-0.0546085387468338, -0.048186399042606354, 0.059824761003255844, 0.16435419023036957, 0.10499981045722961, 0.042781539261341095, 0.02068129926919937, -0.16674785315990448, -0.14935526251792908, -0.08393273502588272, 0.0708073079586029, 0.18431125581264496, 0.050231773406267166, 0.1520521342754364, 0.1875075250864029, -0.050798557698726654, 0.02120533585548401, -0.01395325269550085, 0.21347391605377197, 0.16088323295116425, 0.1927727460861206, -0.27970564365386963, -0.2244064062833786, 0.22392110526561737, 0.00269366055727005, -0.08505938202142715, -0.0820731520652771, 0.2782411575317383, 0.2836723327636719], [0.42173653841018677, 0.2995944023132324, -0.1319381594657898, -0.06295585632324219, -0.48730605840682983, 0.16471362113952637, -0.4177609384059906, -0.0884966254234314, 0.0871778056025505, 0.1446773111820221, 0.16215991973876953, 0.07186990976333618, 0.10190856456756592, 0.16693098843097687, 0.10846952348947525, 0.12300210446119308, 0.07188344746828079, 0.10825275629758835, 0.04116908088326454, 0.011296184733510017, 0.17306554317474365, 0.18058842420578003, 0.1409343183040619, -0.06584188342094421, -0.03969886526465416, 0.0009396207751706243, 0.01280371192842722, 0.04574374109506607, 0.10746616125106812], [-0.12940260767936707, 0.017448240891098976, -0.13391293585300446, -0.05172068625688553, -0.008598270826041698, 0.06029874458909035, 0.05933826044201851, 0.16236235201358795, -0.16188901662826538, -0.3083813786506653, -0.15008950233459473, 0.07111254334449768, -0.0757848247885704, -0.24648866057395935, -0.08860309422016144, -0.08806616067886353, -0.20299288630485535, -0.16536791622638702, -0.1779768466949463, -0.09024735540151596, -0.19433410465717316, -0.1592569649219513, -0.2516919672489166, 0.13966789841651917, 0.08750821650028229, -0.10299611836671829, -0.19078485667705536, -0.013615735806524754, -0.06145097687840462], [-0.09186045825481415, 0.24395301938056946, 0.05704319104552269, 0.042538177222013474, -0.23181264102458954, 0.07463663816452026, 0.06030841916799545, -0.06600046157836914, -0.09928209334611893, 0.06711118668317795, 0.08796821534633636, 0.12271129339933395, -0.05782681703567505, 0.04124080017209053, -0.057144101709127426, 0.049857523292303085, 0.15008515119552612, -0.12478892505168915, 0.047471385449171066, 0.12371420115232468, 0.11409597098827362, -0.06626677513122559, 0.01695476658642292, -0.04526999592781067, -0.33561673760414124, -0.06868834048509598, 0.20712672173976898, 0.1125454530119896, 0.1061316728591919], [-0.0355229452252388, -0.04527842253446579, -0.014582681469619274, -0.04392492398619652, -0.02550571784377098, 0.06677722185850143, 0.0464540533721447, -0.03115973249077797, -0.003429022617638111, 0.07948031276464462, 0.12804651260375977, 0.01630272902548313, 0.05749667435884476, 0.041338495910167694, 0.04313841834664345, 0.08241358399391174, 0.03638261556625366, 0.029186837375164032, -0.2853426933288574, 0.5056972503662109, 0.20946845412254333, 0.1463416963815689, 0.06374906748533249, 0.15036839246749878, 0.18850547075271606, -0.1297338306903839, -0.029783163219690323, 0.12435828149318695, 0.15438371896743774], [0.30073660612106323, 0.23633818328380585, -0.031512875109910965, -0.689468264579773, -1.3243365287780762, 0.24511928856372833, -0.3036182224750519, 0.00034512364072725177, -0.03694948926568031, -0.0425504706799984, -0.0023470718879252672, 0.00418743584305048, 0.00022461413755081594, 0.06699880957603455, 0.10126376152038574, 0.15522827208042145, 0.13840873539447784, 0.14893032610416412, -0.09280797094106674, -0.03490958735346794, 0.3999636769294739, -0.030693838372826576, -0.04483579099178314, -0.01055779680609703, -0.06139346957206726, -0.09655030071735382, -0.0008365249959751964, 0.01506751962006092, 0.03647235780954361], [0.0916750505566597, 0.04306718707084656, -0.04804248735308647, -0.03343161940574646, 0.14298982918262482, -0.07541316002607346, -0.0003703474358189851, 0.08005505800247192, -0.04770870506763458, 0.0015169059624895453, 0.07414707541465759, -0.09878423064947128, -0.2113017588853836, -0.134585902094841, -0.0012955639977008104, -0.0422506146132946, -0.07501193881034851, -0.16068679094314575, 0.19019894301891327, -0.2268809974193573, 0.06748049706220627, -0.2119651734828949, -0.17195841670036316, -0.30995938181877136, -0.2871696352958679, -0.14001458883285522, 0.13316009938716888, 0.026544000953435898, 0.12762264907360077], [0.05349474400281906, 0.1371319591999054, 0.01804148592054844, 0.03388378769159317, -0.0675526112318039, -0.006840948946774006, 0.0065439254976809025, -0.26937738060951233, 0.31474751234054565, -0.03659149631857872, -0.058057673275470734, -0.009313388727605343, 0.11340877413749695, 0.05131971463561058, 0.08111730217933655, -0.2555106580257416, -0.26131996512413025, -0.26980018615722656, 0.17391052842140198, -0.26926010847091675, -0.36300960183143616, 0.08476091921329498, 0.053936440497636795, 0.10810806602239609, 0.14779768884181976, 0.10257956385612488, 0.024985283613204956, -0.05407553166151047, -0.011885549873113632], [0.010722748935222626, -0.01611088030040264, -0.048181649297475815, -0.02560286596417427, 0.06250088661909103, 0.08004435151815414, 0.06978385895490646, -0.1010485514998436, 0.11281920224428177, 0.1252443790435791, 0.08497297763824463, -0.08646558225154877, 0.0009228770504705608, 0.1082153469324112, -0.050067756325006485, 1.35558666443103e-05, -0.13344523310661316, -0.12942679226398468, 0.0060060890391469, -0.33283549547195435, 0.085476353764534, 0.24320459365844727, -0.049703799188137054, -0.13238190114498138, -0.012263459153473377, 0.06752302497625351, 0.12060197442770004, -0.03015330620110035, -0.2347155660390854], [-0.025865385308861732, -0.02047857828438282, 0.003596705384552479, -0.10280796885490417, -0.16173651814460754, 0.011565583758056164, -0.014005746692419052, 0.619758129119873, -0.2416919767856598, 0.233283132314682, 0.18713313341140747, 0.09317299723625183, 0.09267054498195648, -0.46422523260116577, 0.18334180116653442, -0.257449209690094, -0.3336259424686432, 0.190490260720253, -0.020871661603450775, 0.10019990056753159, 0.07535984367132187, 0.0737268254160881, 0.005991483572870493, -0.06309995800256729, -0.08726853132247925, -0.023682191967964172, 0.039760421961545944, 0.08671000599861145, 0.13401441276073456], [-0.11904777586460114, 0.43834972381591797, 0.11859847605228424, 0.1549731194972992, -0.26618409156799316, -0.157655730843544, -0.10106564313173294, -0.20979323983192444, -0.1683969646692276, 0.06713715195655823, 0.13428692519664764, 0.14225547015666962, 0.10871269553899765, -0.061863820999860764, -0.009644106961786747, -0.02899802476167679, 0.07909233123064041, -0.06230166181921959, 0.2316349744796753, 0.11676737666130066, -0.0768246129155159, -0.10952094197273254, -0.06753797829151154, -0.08249705284833908, -0.10673686861991882, -0.07423160970211029, -0.03348570317029953, -0.11043355613946915, -0.11870429664850235], [0.09533081948757172, 0.07790619879961014, 0.07055872678756714, 0.14479446411132812, 0.11362545192241669, 0.015108169987797737, 0.09867258369922638, 0.04365503787994385, -0.17954468727111816, -0.1747896820306778, -0.19753795862197876, 0.07549839466810226, 0.015226566232740879, 0.1906500905752182, -0.006681798025965691, -0.1336672008037567, 0.02723504789173603, -0.40904611349105835, -0.029377372935414314, 0.22658225893974304, 0.03593365103006363, -0.02867688424885273, 0.06154103949666023, -0.16904805600643158, -0.09252220392227173, -0.08823148161172867, 0.029519332572817802, 0.07120942324399948, -0.05281326174736023], [-0.1125979870557785, 0.10246144980192184, 0.036161329597234726, 0.07397815585136414, -0.08630163967609406, -0.03791530430316925, -0.00642651179805398, -0.07505260407924652, -0.13171668350696564, -0.03616844862699509, -0.025340426713228226, -0.023944271728396416, 0.09834451973438263, -0.71905916929245, 0.01658117212355137, -0.08426686376333237, -0.2143782675266266, -0.0293876975774765, -0.17401620745658875, 0.07393141090869904, -0.18308593332767487, -0.08285585045814514, 0.1356191635131836, 0.0319671668112278, 0.0899234339594841, -0.011587712913751602, 0.19222408533096313, -0.25935274362564087, -0.2588889002799988], [-0.6930786371231079, 0.4063681364059448, 0.034722790122032166, -0.04404910281300545, -0.2605704069137573, 0.07370289415121078, 0.08730462193489075, 0.4550471305847168, 0.07953661680221558, -0.05853482335805893, -0.08908785134553909, -0.1107219010591507, 0.12523402273654938, 0.3312470018863678, 0.16431501507759094, 0.015136678703129292, 0.01084819994866848, 0.06651086360216141, -0.01003058347851038, -0.03069685585796833, 0.09918314218521118, 0.014636465348303318, 0.027128547430038452, -0.01376915443688631, -0.03212762996554375, -0.056115780025720596, 0.01642976701259613, -0.011483734473586082, -0.06913463026285172], [-0.6900105476379395, 0.1980491578578949, 0.01861722581088543, 0.08113784343004227, -0.5653610229492188, -0.2766772508621216, 0.31053581833839417, 0.02130548469722271, -0.00561154680326581, -0.3136480152606964, -0.21460218727588654, -0.07070831209421158, 0.1173471063375473, 0.14493732154369354, -0.00801775325089693, 0.08604981750249863, 0.11415192484855652, 0.07428371161222458, 0.03939112275838852, 0.00040989811532199383, 0.2410704791545868, 0.1448173075914383, 0.0357818603515625, 0.06372179090976715, -0.015665512531995773, 0.0024401729460805655, 0.07892041653394699, 0.20141547918319702, 0.21255597472190857], [0.04572743922472, 0.0569610595703125, 0.07716397941112518, -0.0425170436501503, -0.1430562436580658, 0.18045857548713684, -0.008386953733861446, 0.031246483325958252, 0.21678537130355835, -0.6334554553031921, -0.4262757897377014, -0.12038043886423111, 0.18047122657299042, 0.176897332072258, 0.39244624972343445, -0.025625448673963547, 0.027079468593001366, 0.28641706705093384, 0.03395223617553711, 0.1438920646905899, -0.20790395140647888, 0.0886865183711052, -0.0884268656373024, 0.1297973245382309, 0.154571071267128, 0.3359881043434143, 0.07790958136320114, -0.24645203351974487, -0.41582298278808594], [0.15157537162303925, -0.003937171306461096, -0.1630079448223114, -0.2243700623512268, -0.39689916372299194, -0.023211199790239334, -0.11702345311641693, 0.2379155457019806, 0.12125685811042786, 0.08498593419790268, -0.037620823830366135, 0.041257333010435104, -0.04433242231607437, 0.053159844130277634, -0.7420340776443481, -0.5390598773956299, -0.046594008803367615, 0.5863606929779053, -0.21432894468307495, -0.016865452751517296, -0.5260294675827026, 0.169948548078537, 0.035908039659261703, 0.21633802354335785, -0.04801185801625252, -0.16419872641563416, -0.060820963233709335, -0.09182120859622955, -0.021226227283477783], [-0.08358524739742279, -0.07543916255235672, -0.011771720834076405, 0.07492900639772415, -0.08949824422597885, -0.16755560040473938, -0.11138317734003067, 0.006535960361361504, -0.2609613537788391, -0.040986135601997375, -0.0071686445735394955, -0.021098172292113304, 0.1685287058353424, 0.36598753929138184, 0.18926025927066803, -0.038099486380815506, -0.04381264001131058, -0.05618251860141754, 0.02140958234667778, 0.03694843128323555, 0.1366630643606186, 0.18303512036800385, 0.10440366715192795, 0.11506479233503342, 0.1865490972995758, 0.09085663408041, 0.03904721885919571, -0.4130309820175171, -0.519778847694397], [0.01325924787670374, 0.10403217375278473, 0.0635780617594719, 0.004475106485188007, -0.00350541016086936, 0.05700993537902832, -0.009798272512853146, -0.00828616414219141, -0.0913291871547699, -0.08510871976613998, -0.057422660291194916, 0.07581073045730591, 0.011002650484442711, 0.06315406411886215, 0.1406530886888504, 0.01737193390727043, 0.13544252514839172, 0.3752704858779907, 0.35332128405570984, -0.4180940091609955, 0.09148259460926056, 0.018469687551259995, -0.0660535916686058, 0.009215166792273521, 0.06916309148073196, 0.01292838342487812, -0.09527638554573059, -0.02693703956902027, -0.09150277823209763], [0.1015966609120369, -0.019369756802916527, 0.026255089789628983, -0.1078789085149765, -0.03627373278141022, -0.09066292643547058, -0.043509043753147125, 0.32014861702919006, 0.12448859959840775, -0.07243137806653976, 0.23686739802360535, 0.13828174769878387, -0.20394344627857208, -0.14093568921089172, -0.17401038110256195, -0.21901282668113708, -0.05164675414562225, -0.318183958530426, -0.26043131947517395, 0.11599607020616531, 0.11184097826480865, -0.004730381071567535, 0.009576713666319847, -0.08331075310707092, 0.007278488017618656, 0.05100242421030998, 0.04662815481424332, 0.13098455965518951, -0.04237929731607437], [-0.09432633966207504, 0.1017882451415062, -0.07781282812356949, -0.07017675042152405, -0.2222302109003067, 0.03715623915195465, -0.12138499319553375, 0.21396613121032715, -0.24588285386562347, -0.4270062744617462, 0.08155559003353119, 0.058777786791324615, -0.05050095170736313, 0.14556141197681427, 0.23771056532859802, -0.005917693488299847, 0.002906201174482703, -0.3285674452781677, 0.20281186699867249, -0.03396952524781227, -0.11011165380477905, 0.13609980046749115, 0.17630691826343536, 0.046571824699640274, -0.2597517669200897, -0.11375351250171661, -0.08281717449426651, 0.20723187923431396, 0.1391192376613617], [0.1355908215045929, -0.22887930274009705, -0.16511033475399017, -0.036898475140333176, 0.18148115277290344, -0.09293856471776962, -0.12538036704063416, -0.14664115011692047, -0.14932145178318024, 0.33613482117652893, 0.3382190465927124, 0.21843282878398895, 0.0413656122982502, -0.0028975708410143852, -0.0618923082947731, -0.0410226546227932, 0.10769613832235336, 0.21738925576210022, -0.025337819010019302, -0.06655655801296234, -0.2533000111579895, 0.11024902760982513, 0.05094868689775467, 0.12772215902805328, -0.014754179865121841, -0.10774547606706619, 0.0386500246822834, 0.18485839664936066, 0.15752069652080536]], "features.0.bias": [0.14679230749607086, -0.04783651605248451, -0.2031451165676117, -0.2105291485786438, -0.2335643470287323, 0.2055504322052002, 0.09486398845911026, 0.007583577651530504, 0.0989479050040245, -0.12189705669879913, 0.08455173671245575, -0.09214287251234055, -0.09687716513872147, 0.06145963817834854, -0.008064077235758305, -0.09746773540973663, -0.012640412896871567, 0.12171515077352524, 0.16391897201538086, 0.07265163213014603, -0.06395649909973145, 0.09768006205558777, 0.1405140459537506, -0.017810096964240074, 0.1809149831533432, 0.017243120819330215, 0.00573876965790987, 0.17714503407478333, -0.02998192608356476, -0.09721067547798157, -0.1648523062467575, 0.0659172385931015, -0.08188272267580032, -0.11438412219285965, 0.07889526337385178, 0.22549541294574738, 0.04507514461874962, -0.10405638813972473, 0.022198975086212158, -0.08695556968450546, -0.017034484073519707, -0.0910106748342514, 0.16620276868343353, 0.17251107096672058, -0.11002721637487411, -0.11299026012420654, -0.0836424008011818, 0.03888395056128502, -0.17004863917827606, -0.032817739993333817, 0.1382891833782196, -0.1266496479511261, -0.19570593535900116, 0.08328483253717422, 0.020165514200925827, -0.09960324317216873, -0.21972931921482086, -0.09004014730453491], "features.2.weight": [[-0.2314731627702713, -0.020883796736598015, -0.025220047682523727, -0.2603306174278259, 0.09267841279506683, -0.08114631474018097, 0.00613173795863986, 0.07159606367349625, -0.176672101020813, -0.006107351742684841, -0.13044027984142303, 0.16418050229549408, 0.18066155910491943, -0.1679292768239975, 0.10063790529966354, -0.28390878438949585, -0.02980104833841324, 0.0432535856962204, 0.044378072023391724, 0.010483932681381702, 0.05084468051791191, -0.03967561945319176, 0.1222788542509079, 0.2138848751783371, -0.015431981533765793, -0.05420263111591339, 0.04908272251486778, 0.1609581857919693, 0.18746629357337952, 0.01877461187541485, 0.08174111694097519, 0.06400422006845474, -0.07021615654230118, 0.19877228140830994, 0.07316501438617706, 0.13375355303287506, -0.3269735872745514, 0.2940252423286438, 0.0738665908575058, -0.0235517006367445, 0.0326090045273304, 0.34974780678749084, -0.1442023366689682, -0.1253420114517212, -0.18883903324604034, -0.1431574672460556, 0.07542412728071213, 0.002253948710858822, -0.00402079476043582, -0.3208862245082855, -0.4698263108730316, -0.03222580999135971, 0.20017209649085999, -0.23564359545707703, 0.007056109607219696, -0.03518247604370117, 0.06582488864660263, 0.07934249192476273], [0.14565587043762207, 0.087610624730587, 0.1520199179649353, 0.05761034041643143, 0.2565428614616394, -0.17067041993141174, 0.03315393999218941, -0.025702428072690964, -0.3778702914714813, 0.18043012917041779, -0.1446601152420044, 0.08297505974769592, 0.004032224416732788, -0.020424215123057365, 0.1065857782959938, 0.07362113147974014, -0.09812533110380173, -0.14233726263046265, -0.1477574110031128, -0.012096652761101723, 0.060511838644742966, -0.0163047444075346, 0.08657802641391754, 0.1551087498664856, 0.0344325490295887, 0.15955528616905212, 0.009731669910252094, -0.06921974569559097, 0.2235579639673233, -0.28027209639549255, 0.25169575214385986, -0.05895543098449707, 0.3479057550430298, -0.057829294353723526, 0.2409621626138687, 0.1380220204591751, 0.03868173435330391, -0.2624092698097229, 0.05033325403928757, -0.11767396330833435, 0.008749333210289478, -0.09015049040317535, -0.028651705011725426, 0.10023243725299835, 0.12949486076831818, -0.025578271597623825, -0.10953383892774582, -0.003448332892730832, -0.19756977260112762, -0.04296125844120979, -0.1411782205104828, 0.06157340109348297, 0.13792632520198822, -0.10619565099477768, 0.16762638092041016, 0.18794101476669312, -0.11010830104351044, 0.09501177817583084], [0.1393645703792572, 0.2773144543170929, 0.03455621376633644, 0.21148383617401123, 0.24541667103767395, 0.08692483603954315, -0.14799273014068604, 0.33648061752319336, -0.13137222826480865, 0.06507042795419693, -0.04722471907734871, -0.07022245973348618, -0.05799461901187897, -0.2045431286096573, 0.023853817954659462, -0.03887270763516426, -0.12159183621406555, -0.23372401297092438, 0.06776133924722672, -0.14623689651489258, -0.09643380343914032, -0.15827208757400513, 0.21628746390342712, -0.27598997950553894, 0.1457633227109909, 0.005109768360853195, -0.1895739883184433, -0.29015594720840454, -0.1294112354516983, 0.2153056412935257, 0.11609771102666855, -0.22354751825332642, 0.03626162186264992, 0.10499610751867294, -0.049997806549072266, 0.05636775493621826, 0.03444874659180641, 0.13196420669555664, 0.29993748664855957, -0.13178656995296478, 0.013431334868073463, -0.29185816645622253, 0.13757172226905823, 0.12685029208660126, 0.2006896287202835, 0.13788241147994995, 0.015126785263419151, -0.13220103085041046, -0.04791613295674324, 0.09140700846910477, 0.1578424721956253, -0.008281425572931767, 0.1971650868654251, -0.11664454638957977, 0.08308487385511398, 0.2269742488861084, -0.20254257321357727, 0.06658309698104858], [0.1400374323129654, -0.1187363862991333, 0.0695900171995163, 0.17456966638565063, -0.09835901111364365, -0.10155326128005981, 0.13751989603042603, 0.08088503777980804, 0.24219439923763275, 0.080907441675663, -0.030797934159636497, 0.2883793115615845, 0.020422372967004776, 0.17468692362308502, 0.14157022535800934, -0.015499650500714779, 0.07931481301784515, -0.21964631974697113, -0.07270007580518723, -0.11434134840965271, 0.1622307449579239, -0.2729281783103943, 0.21998187899589539, 0.1631845235824585, 0.03684160113334656, 0.1848515272140503, -0.09306947141885757, -0.024857157841324806, -0.008572815917432308, 0.11563409864902496, -0.08778750896453857, -0.018685050308704376, 0.19882424175739288, 0.15555304288864136, 0.014035078696906567, -0.0921207144856453, 0.1410338431596756, 0.030937056988477707, 0.05944475159049034, -0.1817655861377716, -0.29452186822891235, -0.0039027943275868893, 0.11846958845853806, 0.2599189281463623, 0.18456345796585083, -0.008919723331928253, -0.01279109250754118, -0.0017892627511173487, 0.11978580802679062, 0.1102563738822937, -0.15069980919361115, -0.09609262645244598, 0.0774867832660675, 0.09935145825147629, 0.06986206024885178, -0.05479750037193298, -0.19073112308979034, -0.09919524937868118], [0.07313768565654755, 0.2254842221736908, 0.14699776470661163, -0.1936606913805008, -0.2841721177101135, -0.08752759546041489, -0.09724629670381546, -0.400501549243927, 0.09156378358602524, -0.15645994246006012, 0.02184896171092987, 0.01999407261610031, 0.03825974836945534, 0.20579148828983307, -0.005362910218536854, -0.19815896451473236, -0.606367290019989, 0.0028785786125808954, 0.021036114543676376, 0.044299978762865067, -0.02941233292222023, 0.04736775904893875, 0.006442673038691282, 0.21121950447559357, -0.14400719106197357, -0.12988072633743286, -0.15025055408477783, -0.3145240843296051, 0.2693205773830414, -0.11911553144454956, 0.18557539582252502, -0.05763174220919609, -0.07909662276506424, -0.561758816242218, 0.10650504380464554, 0.10215883702039719, 0.05627214536070824, -0.08508006483316422, -0.09950826317071915, 0.07084473222494125, 0.20368333160877228, 0.2486548125743866, 0.023526938632130623, -0.032541923224925995, 0.10000135004520416, 0.1439616084098816, 0.09843844175338745, 0.1148323193192482, 0.21028394997119904, 0.02773033082485199, 0.018945762887597084, 0.1408149003982544, 0.053142204880714417, 0.0699448511004448, -0.1803598701953888, -0.1532221883535385, -0.01725384220480919, 0.15816742181777954], [-0.05364898219704628, 0.047485701739788055, 0.07493863999843597, -0.09950198233127594, 0.04943861439824104, -0.221514493227005, -0.05233003571629524, 0.1306966245174408, -0.08181531727313995, 0.21135053038597107, 0.06860039383172989, 0.09036271274089813, -0.020274817943572998, 0.05233444646000862, 0.3722388446331024, 0.025129400193691254, -0.015360021963715553, -0.025022227317094803, 0.05145696550607681, 0.16026727855205536, -0.05519736558198929, 0.00037918920861557126, 0.12822359800338745, -0.09850479662418365, -0.1967507004737854, -0.0805269256234169, -0.09132727235555649, 0.07715282589197159, -0.044984735548496246, -0.12843826413154602, -0.026015708222985268, -0.17365439236164093, -0.054278645664453506, -0.12260472774505615, 0.01609116978943348, -0.038508713245391846, 0.15589593350887299, -0.1775199919939041, 0.05691620707511902, 0.06216134503483772, -0.07420440018177032, -0.03467153385281563, 0.1164899468421936, 0.03297211229801178, 0.09381633251905441, 0.17355765402317047, -0.02671225741505623, -0.24673700332641602, -0.014702004380524158, 0.27002766728401184, -0.16767051815986633, -0.040203746408224106, -0.1188342273235321, 0.01953832432627678, 0.15176469087600708, 0.02773665077984333, -0.0689798966050148, 0.20886504650115967], [-0.152727872133255, -0.03941478580236435, 0.13488860428333282, 0.12427858263254166, -0.04420482739806175, -0.05449272319674492, 0.04778748005628586, -0.3282677233219147, 0.02905367873609066, -0.044274963438510895, -0.026973672211170197, -0.12917469441890717, 0.1602703034877777, 0.011062492616474628, 0.13913299143314362, -0.047957777976989746, -0.1323975771665573, -0.0448240227997303, -0.07280091941356659, 0.17178861796855927, 0.054400403052568436, -0.034736111760139465, 0.006800056900829077, 0.07189472764730453, 0.04986637830734253, -0.1050504818558693, -0.13473528623580933, -0.09796036034822464, 0.23471315205097198, -0.15092523396015167, -0.07846987247467041, -0.08135683834552765, 0.31450626254081726, -0.0034687442239373922, 0.12243156135082245, 0.11505436152219772, 0.16881759464740753, 0.07023695111274719, 0.026667224243283272, 0.063672736287117, 0.09494639188051224, -0.09227168560028076, 0.18789362907409668, 0.09943284094333649, 0.11173846572637558, -0.28061485290527344, 0.07851343601942062, 0.10014282912015915, -0.04977065697312355, 0.05439427122473717, 0.10588999837636948, 0.35891294479370117, 0.08348720520734787, -0.09119763225317001, -0.48962146043777466, 0.19047753512859344, -0.13063351809978485, -0.025048047304153442], [-0.18793636560440063, -0.3411467969417572, -0.006039178464561701, 0.08138737827539444, 0.22586920857429504, -0.13037487864494324, 0.0458994023501873, 0.21908201277256012, 0.36125487089157104, -0.12638431787490845, 0.32071125507354736, -0.12513206899166107, -0.09946954995393753, 0.16862942278385162, -0.06817713379859924, -0.16643153131008148, 0.21561458706855774, -0.07522772252559662, 0.2041153758764267, -0.0743718147277832, 0.20029698312282562, -0.17306114733219147, 0.32078391313552856, -0.17839859426021576, -0.04598531126976013, -0.14944159984588623, -0.06137242540717125, -0.033359378576278687, -0.050215575844049454, -0.024835875257849693, 0.10050493478775024, -0.018557198345661163, -0.2155832052230835, 0.11603590846061707, -0.22834183275699615, -0.053118057548999786, -0.0008867396973073483, 0.035212427377700806, -0.7057415246963501, -0.2666257321834564, -0.10901178419589996, 0.011167417280375957, 0.10566891729831696, -0.042634811252355576, 0.2706569731235504, 0.22002209722995758, 0.25695785880088806, -0.07130713015794754, -0.0036655243020504713, -0.11345809698104858, 0.01412342768162489, -0.01580529473721981, -0.00878524873405695, 0.11392537504434586, 0.1532532423734665, -0.06692470610141754, -0.00030251365387812257, 0.01845669187605381], [-0.09703856706619263, 0.08234404027462006, -0.13301347196102142, -0.026844242587685585, -0.2742551267147064, 0.06560926139354706, -0.006552750710397959, 0.004228207748383284, -0.2400733083486557, -0.07369446009397507, -0.01934109441936016, 0.18065641820430756, -0.20032435655593872, 0.03466106951236725, 0.010841784998774529, 0.16786441206932068, 0.06788736581802368, 0.20028890669345856, 0.04424884170293808, -0.016530446708202362, -0.0018286900594830513, -0.0556902140378952, -0.0066696107387542725, -0.13305869698524475, -0.09308156371116638, -0.027569692581892014, 0.2423284947872162, 0.1704946607351303, -0.34816330671310425, 0.08329139649868011, -0.07590584456920624, -0.08520888537168503, 0.0761536955833435, 0.17625455558300018, 0.13156375288963318, 0.15661294758319855, 0.1624729335308075, 0.19421930611133575, -0.02747265249490738, -0.039718203246593475, 0.04754406958818436, 0.057382743805646896, -0.16932246088981628, 0.1826847344636917, 0.20121902227401733, -0.08581903576850891, 0.19215567409992218, 0.16115924715995789, 0.00419333390891552, 0.07102186977863312, 0.18073149025440216, 0.10157850384712219, 0.0368262343108654, 0.1327492743730545, -0.32674458622932434, 0.2135419249534607, 0.020321831107139587, -0.14365728199481964], [0.17504432797431946, -0.1325453519821167, -0.09793355315923691, 0.03275125101208687, 0.006522498559206724, 0.14604336023330688, -0.09091441333293915, -0.18275457620620728, 0.09854903817176819, -0.0552763007581234, 0.09660698473453522, -0.3109818696975708, -0.09469324350357056, -0.037124235183000565, -0.1221071183681488, -0.12038327753543854, -0.08810240030288696, -0.1047595962882042, 0.10000322759151459, 0.14006446301937103, -0.07114195823669434, 0.01093366090208292, 0.09041023254394531, -0.04700997471809387, 0.13236236572265625, 0.18981853127479553, -0.19842901825904846, -0.13351133465766907, 0.09595806151628494, -0.07311954349279404, -0.10622286051511765, -0.31344708800315857, 0.048452168703079224, -0.23718249797821045, -0.001146698952652514, 0.049778930842876434, 0.024379601702094078, 0.21555566787719727, 0.04893216863274574, 0.20114457607269287, -0.21696737408638, -0.06105650216341019, 0.15592914819717407, 0.033878393471241, -0.1717735230922699, 0.020073892548680305, 0.017672158777713776, -0.14099830389022827, 0.05129224807024002, 0.12868502736091614, 0.2053745687007904, 0.005970946978777647, 0.10007426142692566, -0.0233547892421484, -0.10522881895303726, -0.12395231425762177, -0.0372869148850441, 5.874022463103756e-05], [0.0168230589479208, 0.2965129017829895, -0.15251179039478302, 0.2225978821516037, 0.15230166912078857, -0.3164818286895752, 0.22756913304328918, -0.18760941922664642, -0.20049628615379333, 0.10726021230220795, -0.13990072906017303, 0.02137790620326996, -0.3469868004322052, 0.22433021664619446, -0.15392076969146729, 0.21288610994815826, -0.16302648186683655, -0.26345741748809814, -0.14014026522636414, 0.3136132061481476, -0.03887803480029106, -0.3106694519519806, -0.07091698795557022, 0.0686904788017273, 0.020329689607024193, -0.13221122324466705, -0.11176023632287979, 0.0342794694006443, 0.22470317780971527, 0.14263615012168884, -0.06361904740333557, 0.032402098178863525, 0.19438430666923523, -0.17020170390605927, 0.0669931098818779, -0.2513301968574524, 0.14063039422035217, 0.03408926725387573, -0.021798303350806236, 0.10380382090806961, 0.04068216308951378, 0.11706332117319107, -0.0292943324893713, 0.17252033948898315, 0.10184496641159058, -0.31997495889663696, 0.0948084369301796, -0.0491134412586689, 0.14891403913497925, -0.36935579776763916, 0.05088995397090912, -0.017824342474341393, 0.05651174485683441, -0.02177659049630165, 0.25585243105888367, -0.12414722889661789, -0.06702493131160736, 0.09831050783395767], [0.042149681597948074, -0.131199911236763, -0.09188523143529892, 0.0011090057669207454, 0.2993874251842499, -0.21957705914974213, -0.1797061711549759, -0.03640058636665344, 0.20014028251171112, -0.17723269760608673, 0.11086265742778778, 0.1643865704536438, -0.16094593703746796, -0.194366917014122, -0.013230022974312305, 0.18022365868091583, 0.02130403183400631, -0.25955474376678467, 0.12821771204471588, -0.17080165445804596, -0.014078104868531227, -0.18503306806087494, 0.2077515870332718, -0.08665085583925247, 0.09484732896089554, -0.2356884628534317, 0.3136657774448395, 0.07732044905424118, 0.21816711127758026, -0.03278958052396774, -0.11323683708906174, 0.3278259336948395, 0.08505751192569733, 0.04750780388712883, -0.03708300739526749, -0.037723880261182785, -0.012600284069776535, -0.017528610303997993, -0.06632920354604721, -0.22086867690086365, 0.057065170258283615, -0.13929615914821625, -0.030055541545152664, 0.15528422594070435, -0.1562459021806717, -0.010690443217754364, 0.04822034761309624, 0.11651258170604706, -0.06717534363269806, 0.17729933559894562, 0.0010381592437624931, -0.1235867440700531, 0.4320147633552551, 0.1443498432636261, -0.1906302273273468, -0.021802494302392006, 0.10155236721038818, -0.0725715383887291], [-0.14417719841003418, 0.01992209255695343, 0.06181856244802475, 0.13452079892158508, -0.11692487448453903, 0.004219112917780876, 0.1633806973695755, 0.2599615454673767, 0.09905199706554413, 0.036340195685625076, 0.088203065097332, -0.3513225018978119, -0.27414578199386597, 0.14710183441638947, 0.13009923696517944, -0.047233644872903824, 0.13104744255542755, 0.05662621930241585, 0.13283118605613708, 0.028551597148180008, -0.13149690628051758, -0.2006979137659073, 0.16479948163032532, 0.03161958232522011, -0.05472704768180847, 0.1588023155927658, -0.14049361646175385, 0.1801079660654068, 0.19031722843647003, -0.09712124615907669, -0.07549493759870529, -0.16978350281715393, -0.20027895271778107, 0.22322623431682587, 0.10307218134403229, 0.00036575424019247293, 0.08726298809051514, 0.0013526445254683495, 0.017498834058642387, -0.03418353199958801, -0.3639693856239319, 0.018040651455521584, -0.2931140661239624, 0.13436782360076904, 0.045405030250549316, -0.0071774632669985294, 0.028676779940724373, -0.06014815717935562, 0.01778380386531353, -0.04821662977337837, 0.13095024228096008, 0.17081253230571747, -0.12938445806503296, -0.10154599696397781, -0.40082961320877075, 0.09008285403251648, 0.0728439912199974, 0.08987227827310562], [-0.012389111332595348, 0.14733059704303741, -0.5626804232597351, 0.12450175732374191, -0.09691761434078217, -0.12394077330827713, 0.23136357963085175, 0.1842508167028427, 0.07646261155605316, 0.017093591392040253, -0.04257563129067421, -0.027817312628030777, 0.11962498724460602, -0.03946799039840698, -0.0449783019721508, -0.022669225931167603, -0.001303916797041893, 0.1791849583387375, 0.055074237287044525, -0.20139969885349274, -0.00877758301794529, 0.15125614404678345, -0.11842093616724014, -0.013884632848203182, -0.1102035641670227, 0.008989873342216015, 0.3466093838214874, -0.029339604079723358, -0.21252278983592987, 0.2025059163570404, -0.46293219923973083, -0.1931914985179901, 0.5061311721801758, -0.2583981156349182, -0.05466310307383537, 0.15805880725383759, -0.09635863453149796, -0.12805694341659546, 0.338426798582077, -0.1082359105348587, 0.12703514099121094, 0.007402925286442041, -0.10482665151357651, -0.009781102649867535, 0.3058578670024872, -0.07437349110841751, 0.029185021296143532, 0.02641402743756771, 0.05763521045446396, -0.05834823474287987, -0.37995442748069763, -0.1278800368309021, 0.24353903532028198, -0.05200199410319328, -0.15687939524650574, 0.08553417026996613, 0.19346287846565247, 0.11686407774686813], [0.05832172930240631, -0.0027849660255014896, 0.06476344168186188, 0.12254815548658371, 0.017642712220549583, -0.04844213277101517, -0.11304748058319092, 0.1444360315799713, -0.139296755194664, -0.012043301947414875, -0.031244203448295593, -0.10735641419887543, 0.18752869963645935, 0.05316251888871193, -0.051791731268167496, -0.09835899621248245, -0.09024398028850555, -0.1393222212791443, 0.010455104522407055, 0.15135949850082397, -0.3208616375923157, 0.044949326664209366, -0.23689483106136322, 0.21167674660682678, 0.22631050646305084, -0.16341805458068848, -0.0971977487206459, 0.30650007724761963, -0.009443331509828568, -0.3199704587459564, -0.06932450085878372, -0.23565497994422913, -0.4391188621520996, -0.12581181526184082, 0.14990095794200897, -0.22055946290493011, 0.14674589037895203, -0.1116342842578888, -0.10137128829956055, -0.15189285576343536, 0.14240050315856934, 0.20248302817344666, -0.04968421906232834, 0.05108588561415672, 0.09989573061466217, -0.13838306069374084, -0.05385792627930641, -0.031376443803310394, 0.017447132617235184, 0.10435572266578674, 0.1825360506772995, 0.298799067735672, -0.12952837347984314, 0.08295302093029022, 0.19603727757930756, 0.2738089859485626, -0.26057153940200806, -0.1323229819536209], [-0.017215671017766, -0.5175879001617432, 0.11251664161682129, 0.03720454126596451, 0.09914709627628326, 0.11389344185590744, -0.1063692569732666, -0.178913414478302, -0.16446919739246368, -0.2528311312198639, 0.14391832053661346, 0.15954969823360443, 0.07522603869438171, -0.3465172052383423, -0.0013563304673880339, 0.17210733890533447, 0.1200830265879631, 0.0223295446485281, 0.26814016699790955, -0.021414298564195633, 0.19134297966957092, -0.1342145800590515, -0.16940654814243317, -0.19442465901374817, -0.1427241861820221, 0.06148345395922661, 0.10905078053474426, 0.049337562173604965, 0.031829219311475754, 0.2101571410894394, 0.05951923877000809, 0.05250196531414986, -0.052636511623859406, 0.21618427336215973, 0.2122504711151123, 0.13969604671001434, 0.07559911161661148, 0.04896434396505356, 0.09068064391613007, 0.1113147959113121, -0.2507854700088501, 0.12269002199172974, 0.01713576726615429, 0.22693698108196259, -0.09870545566082001, -0.11953047662973404, 0.06007777899503708, -0.13394910097122192, 0.07435008883476257, 0.038239676505327225, 0.08704781532287598, 0.03123289719223976, 0.23229873180389404, 0.056806985288858414, 0.26927152276039124, -0.33817923069000244, -0.12138842046260834, -0.02016746997833252], [0.17147068679332733, 0.20352424681186676, 0.458295613527298, -0.167157843708992, -0.11058414727449417, -0.17512105405330658, -0.10546915978193283, 0.3758588135242462, -0.003220207989215851, 0.01996518112719059, 0.07397056370973587, 0.0005853434558957815, -0.16750581562519073, -0.017224282026290894, -0.025546809658408165, 0.234833225607872, 0.10877309739589691, 0.11790809035301208, 0.04602717608213425, -0.13317765295505524, -0.3342272639274597, -0.00643598148599267, 0.017479054629802704, 0.2502744495868683, -0.040964413434267044, -0.004848499782383442, 0.08111544698476791, 0.0173322930932045, -0.0737571120262146, 0.05219825729727745, 0.04625857248902321, 0.21065464615821838, 0.22617653012275696, -0.2268209010362625, -0.17204000055789948, -0.052890595048666, -0.07245085388422012, 0.011741485446691513, -0.06702461838722229, -0.013388851657509804, 0.2510015666484833, 0.02927735075354576, 0.2840840518474579, -0.0981726124882698, -0.13193930685520172, -0.061657488346099854, 0.07347694784402847, 0.009843884967267513, 0.008760414086282253, 0.07190074026584625, 0.03616095334291458, 0.2395840734243393, 0.04147302359342575, 0.01717822626233101, 0.09165883809328079, 0.11530302464962006, -0.2788792550563812, 0.17975065112113953], [-0.12545540928840637, -0.28833985328674316, 0.28813689947128296, 0.13058798015117645, 0.08970903605222702, -0.11961705982685089, 0.040004126727581024, -0.38445597887039185, -0.2911642789840698, 0.04552117735147476, 0.04778050258755684, -0.044083356857299805, -0.3772165775299072, -0.1310817450284958, 0.003490171395242214, -0.10612384974956512, 0.012516606599092484, -0.1286916434764862, 0.029365573078393936, 0.05888300761580467, -0.28192204236984253, 0.06291002035140991, 0.20265111327171326, 0.16410760581493378, -0.058789320290088654, 0.04766896739602089, -0.2316402643918991, -0.11928839981555939, 0.19397756457328796, 0.2762013077735901, 0.05205090716481209, -0.15927031636238098, -0.005546483676880598, 0.19682666659355164, 0.019116245210170746, -0.027576379477977753, 0.25469717383384705, -0.13005302846431732, 0.1348852664232254, 0.160227969288826, 0.136855810880661, 0.11810724437236786, 0.07916484773159027, 0.009809495881199837, 0.06779743731021881, 0.057958174496889114, -0.08727457374334335, -0.028703389689326286, -0.09352704882621765, -0.20519466698169708, -0.10718977451324463, -0.15040527284145355, 0.032744571566581726, -0.0998217761516571, -0.20943087339401245, -0.11211710423231125, 0.09973124414682388, -0.01672971248626709], [0.053443990647792816, 0.005803456995636225, -0.21438246965408325, 0.003864062251523137, -0.5227267146110535, 0.21038740873336792, 0.21306179463863373, 0.0355178639292717, 0.13965490460395813, -0.06974449008703232, 0.123269222676754, -0.16057313978672028, 0.19332341849803925, -0.04253442957997322, 0.11841890215873718, -0.005137002561241388, -0.01535794511437416, 0.1782221794128418, 0.08702083677053452, -0.0282257329672575, -0.23250477015972137, 0.12555964291095734, 0.02322578802704811, 0.1548508256673813, -0.015819363296031952, -0.03511475771665573, -0.15408749878406525, -0.008704805746674538, -0.03803114593029022, -0.20374971628189087, -0.3448861241340637, -0.3275669813156128, 0.07402652502059937, 0.20959879457950592, 0.008848942816257477, -0.029853539541363716, -0.2884519696235657, -0.06498802453279495, 0.03539208322763443, -0.10380641371011734, 0.26324692368507385, 0.10012976825237274, 0.0003014269459526986, -0.17520497739315033, 0.07473830133676529, 0.24550402164459229, -0.22751778364181519, 0.2538534998893738, 0.03490906581282616, -0.011582756415009499, 0.0910593569278717, 0.013906188309192657, 0.07569931447505951, 0.10635769367218018, -0.0947941318154335, 0.06317103654146194, 0.21455548703670502, -0.10086710005998611], [-0.03461726754903793, 0.17245404422283173, 0.10131172835826874, -0.042392753064632416, -0.07107570022344589, 0.11324948817491531, 0.08404670655727386, 0.06923530995845795, 0.142169788479805, 0.1371619999408722, -0.1262914091348648, -0.20913761854171753, -0.0813581719994545, 0.10004331916570663, 0.05614286661148071, -0.1400827020406723, 0.16072218120098114, 0.1841042935848236, -0.06663516163825989, 0.052592694759368896, 0.1156042069196701, 0.1241641715168953, 0.05188882350921631, -0.08195258677005768, -0.18809935450553894, -0.0670660212635994, 0.2088814526796341, 0.10214322060346603, -0.31865760684013367, 0.03270086273550987, -0.09689921140670776, 0.2505625784397125, 0.13676059246063232, 0.08647206425666809, 0.08814127743244171, 0.060301054269075394, 0.1495930403470993, -0.1408006250858307, 0.010117930360138416, -0.18552376329898834, -0.08235617727041245, -0.14749714732170105, 0.17315888404846191, -0.13796783983707428, 0.07641764730215073, -0.09198076277971268, -0.1649421751499176, 0.06186835467815399, -0.13546405732631683, -0.12365380674600601, -0.3340390622615814, 0.01036667637526989, -0.049630723893642426, 0.13724660873413086, 0.07034121453762054, 0.08360961079597473, -0.054020628333091736, 0.027231618762016296], [-0.25979143381118774, -0.39191123843193054, 0.19480793178081512, 0.14447517693042755, 0.055574219673871994, -0.18634212017059326, -0.1063392385840416, -0.7535132169723511, -0.3608171045780182, -0.49206146597862244, 0.3069033920764923, -0.11681290715932846, 0.33304232358932495, -0.007390448357909918, -0.2512151002883911, -0.021233361214399338, 0.02120184525847435, 0.15266814827919006, 0.10864751785993576, -0.2536829710006714, -0.06730391830205917, -0.1559455841779709, -0.08990854024887085, -0.318729043006897, -0.2481292337179184, -0.17656773328781128, 0.13497918844223022, -0.1890796571969986, -0.3389822542667389, 0.03214816004037857, 0.08360583335161209, -0.3372032046318054, -0.3262944519519806, -0.10774344950914383, 0.07338099181652069, 0.07050736248493195, 0.03782110661268234, 0.12340832501649857, -0.0792815238237381, 0.15590234100818634, -0.20321254432201385, 0.11030985414981842, 0.1702594757080078, 0.054176900535821915, 0.10700226575136185, -0.32287460565567017, 0.1317129135131836, 0.1724061518907547, 0.35287776589393616, 0.10058823972940445, 0.02834772877395153, -0.6539438366889954, 0.41522517800331116, 0.16804803907871246, -0.20789536833763123, -0.47858932614326477, 0.5280835032463074, -0.10403990745544434], [-0.28476420044898987, 0.1008819192647934, 0.13907070457935333, 0.1283736526966095, -0.1525389701128006, 0.07256264984607697, -0.09016119688749313, 0.17591099441051483, 0.05334595963358879, -0.0042839921079576015, -0.16459806263446808, 0.03152953460812569, 0.018803676590323448, -0.010105063207447529, 0.10887370258569717, 0.1718258261680603, 0.025678511708974838, -0.05754493176937103, -0.30380094051361084, 0.11429454386234283, 0.2003064900636673, 0.040408749133348465, 0.282713383436203, -0.143312469124794, -0.07595604658126831, -0.3969118595123291, -0.07004302740097046, -0.5319895148277283, 0.19385406374931335, -0.8246811628341675, 0.050516653805971146, -0.06404027342796326, 0.04699629545211792, -0.0869607999920845, 0.03902752324938774, -0.019104816019535065, 0.13341474533081055, 0.12883137166500092, -0.2691757082939148, 0.21055999398231506, 0.028986312448978424, -0.017455264925956726, 0.016352541744709015, 0.3952518701553345, 0.06554803997278214, -0.037656717002391815, -0.12345688790082932, -0.4117281138896942, -0.18896999955177307, -0.02160116471350193, 0.07609543949365616, -0.18368647992610931, -0.046173933893442154, -0.37682873010635376, -0.08689083158969879, 0.03513382747769356, -0.2521677315235138, -0.05175919085741043], [-0.225840225815773, -0.119282566010952, 0.006434180308133364, -0.04980649799108505, 0.16492827236652374, 0.03218526765704155, -0.02531270496547222, 0.12848959863185883, -0.004394566640257835, 0.04583537578582764, 0.21742995083332062, -0.02449505217373371, 0.03406669944524765, 0.2013046145439148, -0.29262417554855347, -0.15246503055095673, -0.08712903410196304, 0.12330479174852371, 0.1595418006181717, 0.09937689453363419, 0.01537938229739666, 0.12850040197372437, -0.5152361989021301, 0.09421787410974503, -0.13572794198989868, 0.226218119263649, 0.18724322319030762, -0.1631702184677124, -0.19567272067070007, 0.11709500849246979, -0.15460798144340515, -0.026960352435708046, -0.35055863857269287, -0.17554551362991333, 0.23557448387145996, 0.10361158847808838, -0.1837969720363617, 0.11581164598464966, 0.016260337084531784, 0.09368981420993805, 0.28593337535858154, 0.006778809707611799, -0.012749324552714825, 0.15640218555927277, -0.015371790155768394, 0.010658279992640018, -0.2415836751461029, 0.0950121358036995, 0.25422826409339905, -0.1318526715040207, -0.05765094235539436, -0.008220931515097618, 0.04764304310083389, 0.16341738402843475, -0.565887987613678, -0.25967589020729065, -0.15915389358997345, -0.04199567064642906], [-0.1766359806060791, 0.04230950400233269, -0.05337190255522728, -0.0544428788125515, -0.008247548714280128, -0.054752167314291, 0.003207914996892214, -0.21803666651248932, -0.013478180393576622, -0.09044792503118515, 0.1863379329442978, -0.03858250752091408, -0.1513196974992752, 0.0901336520910263, -0.14095379412174225, 0.0469730906188488, 0.04016534611582756, 0.14547587931156158, 0.20530813932418823, 0.015667973086237907, 0.07856092602014542, 0.24641282856464386, -0.14835427701473236, 0.009738035500049591, 0.11049526929855347, 0.024180961772799492, 0.08895127475261688, -0.1621461659669876, 0.14208899438381195, 0.17806337773799896, -0.1303069144487381, 0.13271130621433258, 0.06160636246204376, 0.07701072841882706, 0.09427370876073837, 0.16430850327014923, -0.148151233792305, 0.1655200719833374, 0.084439717233181, 0.19023451209068298, -0.11501508206129074, -0.05464126914739609, -0.23977018892765045, 0.1408134251832962, -0.00804211851209402, -0.19127757847309113, -0.12694787979125977, -0.07645608484745026, -0.004533509258180857, -0.1499127298593521, 0.12232198566198349, 0.19029033184051514, 0.3016517460346222, 0.11785294860601425, -0.3312331736087799, 0.18812239170074463, -0.25855618715286255, 0.0906943753361702], [0.07278342545032501, -0.13216200470924377, -0.019989170134067535, -0.4405521750450134, -0.11618352681398392, -0.08652407675981522, -0.20649443566799164, -0.011964622884988785, 0.08233907073736191, 0.20284515619277954, -0.027377935126423836, -0.05860024318099022, -0.08576413989067078, 0.01624894142150879, -0.03949350863695145, 0.22299396991729736, -0.027674278244376183, -0.0748446062207222, 0.22142580151557922, 0.18956713378429413, -0.008073062635958195, -0.046549130231142044, 0.013096566312015057, 0.0015160755719989538, 0.0010775612900033593, -0.17337666451931, 0.011901531368494034, 0.2538716197013855, 0.12405268102884293, -0.16515347361564636, -0.2264174222946167, 0.1662634313106537, -0.017584724351763725, 0.0996510311961174, -0.03687318414449692, 0.01785770244896412, 0.2635595500469208, 0.2321806252002716, -0.05489102005958557, 0.01838482730090618, -0.12084715813398361, -0.16056682169437408, -0.049515947699546814, -0.06721552461385727, -0.1421155482530594, -0.013606110587716103, 0.05882515758275986, 0.03575270622968674, -0.1619628369808197, -0.28719833493232727, 0.17776094377040863, -0.1592174768447876, 0.2656427025794983, 0.10261377692222595, 0.0590817965567112, 0.02295740135014057, -0.15633809566497803, 0.03422901779413223], [0.08706304430961609, -0.04293377697467804, -0.4819038212299347, -0.12494687736034393, 0.12563838064670563, 0.3669370710849762, -0.26250168681144714, -0.29760637879371643, -0.186271071434021, 0.07020128518342972, -0.023463977500796318, -0.04758254811167717, -0.1173858717083931, -0.1862611621618271, 0.05894441157579422, 0.04693816974759102, 0.2798004150390625, -0.14457134902477264, -0.21404828131198883, 0.09441448748111725, 0.09744700789451599, 0.06149750575423241, -0.08400671184062958, -0.03298282250761986, 0.10085029155015945, 0.19662748277187347, -0.2938444912433624, -0.17334353923797607, -0.05239570885896683, -0.12248755991458893, -0.2822621166706085, -0.30184951424598694, 0.15706101059913635, 0.3122406005859375, -0.1827886551618576, -0.05799872428178787, -0.3263866901397705, -0.03524290770292282, 0.004505355842411518, 0.01483580656349659, 0.14554227888584137, 0.1120564341545105, 0.0034864332992583513, -0.29746246337890625, -0.03211895003914833, -0.04633661359548569, -0.2997475862503052, -0.053854718804359436, 0.02773352712392807, 0.12783797085285187, 0.012534222565591335, -0.015955796465277672, -0.05492943152785301, -0.1507570445537567, 0.15625131130218506, -0.13576507568359375, -0.2194218784570694, -0.24990686774253845], [0.03449588268995285, 0.1945517510175705, -0.12756074965000153, -0.015481780283153057, 0.06296037882566452, 0.08308464288711548, 0.10598358511924744, -0.1284957230091095, -0.1249883770942688, 0.11493575572967529, 0.005540947429835796, -0.0689210370182991, -0.2409452646970749, 0.05044957622885704, 0.06432156264781952, 0.11229071021080017, 0.14388270676136017, 0.09235876798629761, 0.20041248202323914, -0.17277489602565765, -0.08874574303627014, -0.006286489311605692, -0.16982711851596832, 0.024093739688396454, -0.12587308883666992, 0.28368011116981506, 0.12732265889644623, 0.018232841044664383, 0.05688313767313957, 0.1478566974401474, -0.14135129749774933, -0.08619879931211472, -0.048310086131095886, -0.08027781546115875, 0.08299291133880615, 0.08702132850885391, 0.21598604321479797, -0.0364970788359642, 0.07225906848907471, -0.03577253594994545, 0.2560606002807617, -0.1599806398153305, -0.07510418444871902, 0.13793158531188965, -0.03336507827043533, -0.05426981300115585, -0.095870740711689, 0.2026178538799286, 0.08851238340139389, -0.1571803241968155, -0.2415003925561905, 0.05557632818818092, 0.28711631894111633, -0.016576355323195457, -0.3991381824016571, 0.13580504059791565, -0.37466225028038025, 0.09329906105995178], [0.18273219466209412, 0.05612505227327347, -0.5062924027442932, -0.28718456625938416, 0.09206923097372055, -0.06070737540721893, -0.138717919588089, -0.005833399947732687, 0.024188417941331863, 0.04768874868750572, -0.2697519063949585, 0.06222226098179817, 0.06057658791542053, -0.2564856708049774, 0.09336493164300919, -0.04683873429894447, 0.043308474123477936, -0.1943957805633545, 0.18640437722206116, -0.0815543681383133, -0.23664215207099915, 0.03431469202041626, 0.10168591141700745, -0.08446614444255829, -0.05127277597784996, 0.13564293086528778, 0.2929151952266693, 0.05144575983285904, 0.15936754643917084, -0.06537152081727982, 0.23152871429920197, 0.06939512491226196, 0.15841315686702728, 0.21715325117111206, -0.13329832255840302, -0.09137427061796188, -0.0951443612575531, -0.045351993292570114, 0.07995913922786713, 0.35174453258514404, -0.09586954861879349, -0.12860944867134094, -0.21820300817489624, 0.06430555135011673, -0.24886730313301086, 0.2828123867511749, 0.2794036269187927, -0.019384676590561867, -0.2593842148780823, -0.019019532948732376, -0.04616096243262291, 0.0460670068860054, 0.2926468551158905, -0.1950126737356186, -0.24091435968875885, 0.08724351227283478, -0.23172275722026825, 0.1848248690366745], [-0.16821521520614624, 0.16641412675380707, 0.14017249643802643, 0.03040730394423008, 0.22082187235355377, 0.11620896309614182, 0.01571393571794033, -0.3607615828514099, -0.10000044107437134, 0.09069064259529114, 0.090428426861763, -0.1098303496837616, 0.36388707160949707, 0.18260687589645386, 0.06009867787361145, -0.26874592900276184, -0.08490867167711258, -0.006926851812750101, 0.017333943396806717, 0.0367627814412117, 0.10338125377893448, 0.014184528030455112, -0.142939031124115, -0.1281224638223648, -0.13730578124523163, -0.11481474339962006, 0.14124484360218048, 0.29588407278060913, 0.10505954921245575, -0.14275343716144562, -0.11200479418039322, 0.07378693670034409, -0.23149451613426208, 0.10547483712434769, -0.049973562359809875, 0.13779589533805847, -0.0954243466258049, 0.057710837572813034, 0.02757478505373001, 0.11096617579460144, 0.2689540386199951, -0.05868690460920334, 0.0810348391532898, -0.03572307899594307, -0.1541406661272049, -0.14306940138339996, -0.0455922894179821, -0.08249007165431976, 0.11872271448373795, 0.0915956199169159, 0.08484774827957153, 0.08706793189048767, -0.26530060172080994, -0.1564384251832962, -0.1302822232246399, -0.05500403419137001, 0.15032438933849335, 0.24987921118736267], [-0.08347710222005844, -0.08415297418832779, -0.050839394330978394, 0.07510274648666382, -0.032949864864349365, 0.023345528170466423, -0.010915316641330719, -0.04832420498132706, -0.11441748589277267, 0.10074608772993088, -0.08674490451812744, -0.09846191108226776, -0.06027117371559143, -0.030404765158891678, -0.05927599221467972, -0.0632464662194252, -0.04207174479961395, 0.09795679897069931, -0.04876627027988434, -0.03061772882938385, -0.018148744478821754, -0.06622082740068436, 0.04989608749747276, 0.02561849355697632, -0.0007393299601972103, -0.0673413872718811, -0.07810673862695694, -0.009906118735671043, -0.06811652332544327, -0.002963915467262268, -0.03753254562616348, -0.06862106919288635, 0.08918498456478119, -0.10843393951654434, -0.03692276030778885, 0.03417113423347473, -0.12177667766809464, -0.11053285002708435, -0.06675687432289124, 0.07289004325866699, -0.05714580416679382, 0.0687437504529953, -0.10886159539222717, -0.10199108719825745, 0.048823170363903046, -0.00398476654663682, -0.019805483520030975, -0.12761805951595306, 0.03619268164038658, -0.12346986681222916, 0.06139067932963371, -0.004332050681114197, -0.06803998351097107, 0.032651886343955994, 0.050302907824516296, -0.004166439175605774, -0.07665977627038956, -0.058580201119184494], [0.10166167467832565, 0.010390371084213257, -0.32703855633735657, -0.13296657800674438, 0.21303658187389374, 0.09784781187772751, -0.1392841339111328, 0.08618764579296112, -0.03355226665735245, -0.07849963009357452, -0.062433261424303055, -0.11449768394231796, 0.5397040247917175, -0.001663628383539617, 0.093357153236866, 0.3604356050491333, 0.11326010525226593, -0.12001829594373703, -0.030037593096494675, -0.16170836985111237, 0.08322858065366745, 0.17932826280593872, 0.2111007124185562, 0.033146683126688004, 0.021220576018095016, 0.12057465314865112, 0.10944210737943649, 0.13346973061561584, -0.07621265947818756, -0.40202927589416504, -0.14178365468978882, -0.08947711437940598, -0.12045760452747345, -0.05415141209959984, 0.10067757219076157, 0.23051346838474274, -0.03619490563869476, 0.09311556071043015, 0.015685196965932846, 0.030379455536603928, -0.006286233197897673, -0.07701878249645233, -0.07119984179735184, -0.18934927880764008, -0.003963997587561607, -0.05346604436635971, -0.18302477896213531, 0.1246214509010315, -0.038876745849847794, 0.21615533530712128, -0.001917880610562861, -0.05976870656013489, 0.11294868588447571, -0.03609054163098335, -0.18358071148395538, -0.03047870099544525, 0.174811452627182, 0.022397905588150024], [-0.16469161212444305, -0.28802913427352905, 0.1528104990720749, -0.15687355399131775, 0.2802492380142212, -0.275962769985199, 0.1324336677789688, -0.10722479969263077, -0.10467133671045303, 0.06253822892904282, 0.10684946924448013, 0.19678524136543274, -0.21564547717571259, -0.1292308270931244, -0.30975043773651123, -0.692229151725769, 0.03539992496371269, -0.008310813456773758, 0.09618019312620163, 0.17820274829864502, -0.08116048574447632, 0.077546626329422, 0.02581680938601494, 0.014404239133000374, -0.1526542752981186, -0.0635395273566246, 0.15678369998931885, -0.1176166906952858, -0.25586506724357605, 0.12189576029777527, -0.007348627783358097, -0.0084575479850173, 0.13463254272937775, -0.09495104849338531, -0.07857383787631989, 0.1830989122390747, 0.024475164711475372, 0.061088286340236664, 0.275326669216156, 0.05327247083187103, 0.12775097787380219, 0.011464213952422142, 0.09676650166511536, 0.14481951296329498, -0.019260406494140625, -0.012382888235151768, -0.09590379148721695, 0.05232194811105728, 0.14778675138950348, -0.34363168478012085, 0.06581222265958786, -0.0621483214199543, 0.11234103888273239, 0.16120177507400513, -0.07206044346094131, -0.39585942029953003, -0.20579881966114044, 0.20276036858558655], [0.31922024488449097, -0.4256118834018707, 0.1590237021446228, 0.07096566259860992, -0.06585753709077835, -0.030005687847733498, 0.06611701846122742, 0.7823407649993896, -0.21688559651374817, 0.04595547169446945, 0.16425906121730804, 0.22929976880550385, -0.07673083245754242, -0.4384714663028717, 0.038298074156045914, -0.12567344307899475, -0.08051672577857971, -0.09037058055400848, 0.0721699446439743, 0.1571357548236847, -0.44837263226509094, -0.047227296978235245, 0.0017309612594544888, -0.19466663897037506, -0.22594517469406128, -0.33771631121635437, 0.04115363955497742, 0.1876838654279709, -0.9000832438468933, -0.0469389483332634, 0.2158789336681366, -0.04083473980426788, -0.3555698096752167, -0.22688570618629456, 0.1278318613767624, -0.021161234006285667, 0.06060904636979103, -0.22071748971939087, 0.12123721837997437, -0.05913262069225311, -0.5168327689170837, 0.10910733044147491, 0.21466593444347382, -0.44324684143066406, -0.10630610585212708, 0.040033306926488876, 0.023725558072328568, -0.26141729950904846, 0.07837894558906555, 0.12692226469516754, -0.0954645499587059, 0.07655737549066544, 0.1303078830242157, 0.19929011166095734, 0.11434393376111984, -0.09286961704492569, 0.10089864581823349, 0.18668676912784576], [0.2959277331829071, -0.2989940047264099, 0.07601162046194077, -0.09033109247684479, -0.18295574188232422, -0.00306493928655982, -0.024947237223386765, 0.019108029082417488, 0.03382659703493118, -0.0948655977845192, 0.12348589301109314, 0.10528578609228134, 0.008862323127686977, 0.18817196786403656, 0.0372786745429039, -0.33315029740333557, 0.05598117783665657, 0.1824946105480194, -0.0850418284535408, -0.014682196080684662, -0.09505373984575272, 0.047933802008628845, 0.05295456200838089, 0.04752115160226822, -0.08210621774196625, -0.21833965182304382, -0.031169617548584938, 0.174493208527565, -0.038003139197826385, -0.20482000708580017, 0.23979595303535461, 0.022829189896583557, 0.20526519417762756, -0.10645491629838943, 0.21609775722026825, -0.061441753059625626, 0.04259714484214783, -0.003708246164023876, 0.1229708343744278, 0.1422639787197113, 0.168849378824234, -0.038329530507326126, 0.028876183554530144, -0.058412760496139526, -0.10467398911714554, -0.09564322978258133, 0.0008804444805718958, -0.16164430975914001, 0.06714602559804916, -0.13907884061336517, 0.038798738270998, -0.08308398723602295, 0.18310153484344482, -0.10106995701789856, 0.0847933292388916, -0.27186349034309387, 0.10714627057313919, 0.0346921905875206], [0.1074875220656395, 0.06161827594041824, -0.12597554922103882, -0.47706323862075806, -0.014145140536129475, 0.03783033788204193, 0.02608814463019371, 0.1054345890879631, -0.025861671194434166, -0.16134192049503326, 0.060615845024585724, 0.21502718329429626, 0.25257840752601624, -0.12036067992448807, -0.06204837188124657, 0.22711671888828278, -0.24540077149868011, -0.007989469915628433, 0.13141028583049774, -0.06754361093044281, 0.3227992355823517, 0.046575404703617096, -0.05190492048859596, 0.078461192548275, 0.03494180738925934, -0.024461105465888977, -0.26225346326828003, -0.25528258085250854, -0.23374788463115692, 0.20150215923786163, 0.2647605836391449, 0.0883404016494751, 0.05141348019242287, 0.03971666470170021, -0.12560486793518066, -0.004720571916550398, 0.11359845846891403, 0.15024253726005554, -0.653534471988678, 0.06187037378549576, 0.1053972914814949, 0.177703395485878, 0.012620603665709496, 0.21077732741832733, -0.12945136427879333, -0.5007354617118835, 0.07306073606014252, -0.07015062868595123, -0.13835051655769348, 0.04148714989423752, 0.08564984053373337, -0.016228748485445976, -0.00014529832697007805, -0.0679270401597023, 0.07027972489595413, 0.18773648142814636, 0.06617379188537598, -0.40430399775505066], [-0.05829630419611931, -0.2767394781112671, 0.041185930371284485, 0.05922476202249527, 0.09606631845235825, -0.052881620824337006, -0.12078385055065155, 0.12330102175474167, 0.036458197981119156, -0.07788138091564178, 0.1532866507768631, -0.18387871980667114, 0.24250608682632446, -0.058841608464717865, 0.030639836564660072, 0.006867937743663788, 0.1590116322040558, 0.0941484197974205, 0.08529379963874817, -0.07438500225543976, -0.11739817261695862, 0.2221081256866455, 0.057646118104457855, 0.005836307071149349, -0.22958843410015106, -0.07010965049266815, 0.22490037977695465, -0.0528501532971859, -0.4108342230319977, 0.049950409680604935, -0.17407682538032532, -0.08950679004192352, -0.13960450887680054, 0.13696804642677307, 0.13965827226638794, 0.06921755522489548, -0.06531494855880737, 0.08332683145999908, -0.003542523365467787, 0.056244928389787674, 0.249504953622818, 0.04948032647371292, -0.13359521329402924, -0.05468977242708206, -0.0049220966175198555, 0.05398779734969139, 0.053652528673410416, -0.07682622224092484, 0.03876640275120735, 0.127107635140419, 0.09266268461942673, 0.10092069953680038, 0.1841733157634735, 0.10972346365451813, -0.057680319994688034, -0.154425710439682, -0.2664698660373688, 0.16523860394954681], [-0.23478706181049347, 0.023901665583252907, -0.5972861647605896, 0.007915914058685303, 0.23378367722034454, 0.17640873789787292, -0.2546898424625397, 0.07208652049303055, 0.2838347256183624, -0.1328979879617691, 0.020980048924684525, 0.05801786854863167, 0.10071738064289093, -0.14147844910621643, 0.054962363094091415, 0.046489521861076355, -0.22682128846645355, 0.08267553150653839, -0.0857074111700058, 0.02431299164891243, 0.29853180050849915, -0.09614333510398865, 0.16636402904987335, -0.042014166712760925, 0.10245798528194427, -0.02273036725819111, 0.15140455961227417, 0.00941541325300932, -0.12979918718338013, 0.16036324203014374, -0.05459774658083916, -0.05618419125676155, -0.005923479795455933, -0.33696696162223816, -0.2716512382030487, 0.05687883123755455, -0.2230711132287979, 0.06965256482362747, -0.08201279491186142, -0.18675757944583893, 0.11483912914991379, -0.02555898390710354, 0.09585630893707275, 0.07028669118881226, -0.31678974628448486, 0.13577473163604736, -0.08048982918262482, -0.005498811136931181, -0.09787353873252869, 0.07765182852745056, 0.030894529074430466, 0.1209874078631401, -0.05544223636388779, 0.0035264668986201286, -0.059755705296993256, -0.1542866975069046, 0.16165262460708618, -0.5441597700119019], [-0.09602703154087067, 0.17431201040744781, 0.11234903335571289, 0.07506032288074493, 0.3648051619529724, 0.11922765523195267, 0.0131311547011137, 0.15162251889705658, -0.45341941714286804, 0.020728185772895813, 0.005762436892837286, -0.16597384214401245, -0.19174718856811523, -0.2724350392818451, 0.05765502154827118, -0.06269782781600952, -0.010463417507708073, 0.11579378694295883, -0.0761585459113121, -0.007206203415989876, -0.20233392715454102, 0.2631748616695404, -0.4325956106185913, -0.01716591976583004, 0.06327589601278305, 0.15973332524299622, 0.04829845577478409, -0.12832149863243103, 0.12376751750707626, 0.14899490773677826, -0.16838635504245758, -0.2061537504196167, -0.5404407978057861, 0.15400664508342743, -0.27802836894989014, 0.04949154332280159, 0.24483515322208405, -0.12733107805252075, 0.1273907721042633, 0.012881598435342312, 0.008140312507748604, 0.326497882604599, -0.04502465948462486, -0.19386306405067444, 0.027228612452745438, -0.14912661910057068, -0.15381160378456116, -0.01183357648551464, 0.05802541598677635, 0.027930309996008873, -0.03855140879750252, 0.12487035244703293, 0.023365415632724762, -0.0581735260784626, -0.6691721081733704, 0.10052250325679779, -0.4600832760334015, -0.08107244968414307], [0.14597159624099731, 0.14785273373126984, 0.11975237727165222, -0.05323276296257973, 0.08352410793304443, -0.22518058121204376, -0.014898424036800861, -0.08515530079603195, -0.21566931903362274, 0.058531370013952255, -0.07276139408349991, 0.011022234335541725, -0.026123512536287308, -0.08335791528224945, -0.02183859795331955, 0.1414642632007599, -0.15785878896713257, 0.011805588379502296, -0.09541754424571991, 0.10305559635162354, -0.1254127323627472, 0.11517435312271118, -0.16640062630176544, 0.08698821067810059, -0.14781786501407623, -0.09104516357183456, -0.033716145902872086, -0.06514515727758408, -0.04070042818784714, -0.056493744254112244, 0.19441303610801697, 0.0037547575775533915, 0.13375349342823029, 0.08711855858564377, -0.049575988203287125, 0.11827428638935089, -0.007711432408541441, 0.02466023713350296, -0.18807366490364075, 0.041949495673179626, -0.22868381440639496, 0.059602849185466766, -0.0823814794421196, -0.1159033551812172, 0.18924260139465332, 0.11629827320575714, 0.18782004714012146, 0.07688423991203308, -0.1194944754242897, -0.05789050832390785, 0.13719365000724792, -0.2261895388364792, 0.18946237862110138, 0.10917367041110992, 0.13463950157165527, 0.013536849059164524, 0.0530378557741642, -0.1209421455860138], [0.14118149876594543, 0.0653737410902977, 0.1972859650850296, 0.0992756336927414, -0.13103000819683075, -0.0767083689570427, -0.13228841125965118, -0.21702969074249268, 0.03356499969959259, 0.03353862836956978, -0.16087906062602997, -0.4045673906803131, 0.1528894156217575, 0.06574847549200058, -0.06020984426140785, 0.2954968810081482, -0.11468923091888428, 0.015620841644704342, -0.04571722820401192, 0.08383248001337051, 0.01616796851158142, -0.04716641455888748, 0.20756366848945618, 0.058506809175014496, 0.02547195553779602, -0.1105993390083313, -0.009291326627135277, -0.026933901011943817, 0.09934164583683014, 0.29710984230041504, -0.06313714385032654, 0.13616444170475006, 0.08037932217121124, 0.08359438925981522, 0.06226438656449318, 0.002441451419144869, 0.028466349467635155, 0.024708475917577744, 0.06561742722988129, 0.14042380452156067, -0.029371822252869606, 0.07187232375144958, -0.030642041936516762, -0.34723350405693054, 0.2958585321903229, -0.07441552728414536, 0.12032515555620193, 0.04152677208185196, -0.01799846813082695, -0.04717572405934334, -0.06115421652793884, 0.017318876460194588, -0.05152089521288872, 0.2514932155609131, -0.31297528743743896, 0.04693254083395004, 0.03357996046543121, 0.059509772807359695], [-0.25745707750320435, 0.023912768810987473, 0.060690850019454956, 0.010576914995908737, 0.143684983253479, -0.3347815275192261, -0.015106734819710255, 0.051149751991033554, 0.1718817949295044, -0.03061518631875515, 0.058331090956926346, 0.14017757773399353, 0.07770650088787079, -0.10187187790870667, -0.1025860607624054, 0.06841441988945007, -0.03604671731591225, 0.13972704112529755, -0.0009876209078356624, -0.10893502831459045, 0.09221770614385605, 0.12142722308635712, 0.19140520691871643, 0.11845305562019348, 0.1024947538971901, -0.030822383239865303, 0.050862867385149, -0.23690780997276306, 0.17523139715194702, 0.1794610470533371, 0.03763163462281227, -0.04062144085764885, 0.040243446826934814, -0.2809419333934784, 0.11450478434562683, 0.08222600072622299, -0.12174435704946518, 0.11809627711772919, -0.1192573681473732, 0.17148178815841675, 0.19227008521556854, -0.08448857069015503, 0.07059508562088013, -0.05115850642323494, 0.11243504285812378, -0.03894597664475441, 0.035481810569763184, 0.12112167477607727, -0.041500624269247055, -0.16833370923995972, 0.03798671439290047, -0.24283912777900696, 0.2383653074502945, 0.14096416532993317, 0.035274140536785126, 0.2291938215494156, 0.03708875551819801, -0.2545486390590668], [0.18408101797103882, 0.17267662286758423, -0.04047175869345665, 0.10115808248519897, 0.13472698628902435, 0.03140030428767204, 0.07019329816102982, 0.15986062586307526, 0.002393935574218631, 0.0029517165385186672, -0.030619174242019653, -0.0324593186378479, 0.07141108065843582, -0.1047373041510582, -0.02891601249575615, 0.17019981145858765, 0.2203848510980606, -0.11756923794746399, 0.03917659819126129, -0.09643218666315079, -0.06836147606372833, -0.059677205979824066, -0.009635723195970058, 0.0283844992518425, 0.032660260796546936, -0.2619132101535797, -0.026848725974559784, 0.04316403344273567, 0.21395964920520782, 0.18680733442306519, 0.06647444516420364, 0.1473296582698822, -0.01915867254137993, 0.2221532016992569, -0.06829237937927246, 0.002561051631346345, 0.08510253578424454, 0.04790695384144783, 0.0033248006366193295, 0.04686790332198143, -0.24534446001052856, 0.16384567320346832, -0.13462039828300476, -0.016810592263936996, 0.06102122738957405, 0.017394568771123886, 0.10639429837465286, -0.11826596409082413, -0.03315703198313713, 0.04326923191547394, 0.20721173286437988, -0.1441463679075241, 0.16042907536029816, 0.012226646766066551, -0.024123966693878174, -0.025345956906676292, 0.1261512041091919, -0.06739703565835953], [0.06515026092529297, -0.18009942770004272, 0.34532544016838074, 0.05642072856426239, 0.013760055415332317, -0.06684673577547073, 0.07933198660612106, -0.04883146286010742, -0.02823749929666519, 0.049446817487478256, 0.20110315084457397, -0.2710752487182617, -0.15051497519016266, -0.16205409169197083, -0.2437339723110199, -0.08653024584054947, 0.03184264898300171, -0.0271955206990242, 0.18679465353488922, -0.1244574785232544, 0.051710959523916245, 0.1256326138973236, 0.3490659296512604, -0.3008849620819092, 0.2134077399969101, 0.27815940976142883, -0.12512139976024628, -0.03547113761305809, -0.14317412674427032, 0.1283397525548935, -0.15152764320373535, 0.015613292343914509, 0.1560090035200119, -0.2972071170806885, -0.14468914270401, -0.052141524851322174, -0.10828053206205368, 0.16745814681053162, 0.16316841542720795, 0.051160506904125214, 0.06073020026087761, 0.05350501835346222, 0.1826055943965912, -0.20253804326057434, 0.03203171119093895, 0.031219230964779854, -0.10590061545372009, -0.04165276512503624, -0.008759569376707077, -0.0044500576332211494, 0.0817858874797821, -0.07050125300884247, 0.2904542088508606, -0.061056822538375854, 0.025162361562252045, 0.08096872270107269, 0.430216908454895, -0.16132250428199768], [-0.05898405611515045, 0.057357337325811386, -0.9177090525627136, -0.22256524860858917, 0.11797574162483215, 0.0987795889377594, -0.0822933167219162, 0.19830602407455444, -0.23862996697425842, -0.05950268730521202, 0.027099354192614555, 0.0840592086315155, -0.012564996257424355, -0.05813097953796387, -0.0257354024797678, -0.06503239274024963, -0.08494788408279419, 0.0723346397280693, 0.011984705924987793, 0.2342754453420639, 0.10010069608688354, -0.24646519124507904, -0.07621612399816513, 0.10259255766868591, -0.06932806968688965, -0.057367198169231415, 0.037753939628601074, 0.3273509740829468, 0.27569231390953064, -0.022724244743585587, 0.03154744207859039, 0.0489950031042099, 0.03771093487739563, -0.022740818560123444, 0.16301414370536804, 0.15956822037696838, -0.08143499493598938, 0.08839408308267593, -0.1259118765592575, -0.01844329573214054, -1.502739429473877, -0.051696907728910446, -0.17213429510593414, -0.17318525910377502, -0.15974952280521393, -0.20416049659252167, -0.14297689497470856, -0.12550358474254608, 0.06624912470579147, 0.12364792823791504, -0.07150442898273468, 0.1679866760969162, -0.08241654932498932, 0.09991494566202164, -0.12924805283546448, -0.09276726096868515, -0.08989272266626358, 0.1039794310927391], [-0.11184588074684143, 0.2960188686847687, -0.12298814952373505, 0.07339958846569061, 0.05453112721443176, 0.12300483882427216, 0.22707585990428925, -0.09905301034450531, -0.06892664730548859, 0.057820823043584824, 0.09227922558784485, -0.08556506782770157, 0.21832513809204102, -0.28726187348365784, -0.10737552493810654, -0.07540372014045715, 0.23174749314785004, -0.1667284369468689, 0.18049068748950958, -0.1183394119143486, 0.2979601323604584, -0.09220747649669647, 0.1184784471988678, -0.28930890560150146, -0.05709805712103844, 0.19493699073791504, -0.15595772862434387, -0.15423579514026642, -0.424114465713501, 0.1343318670988083, -0.036695968359708786, -0.10785127431154251, 0.09457823634147644, 0.03623533248901367, -0.2274748533964157, 0.05304316431283951, -0.06590211391448975, 0.106768898665905, 0.13685551285743713, -0.19820775091648102, -0.18147411942481995, 0.16507264971733093, -0.25582757592201233, 0.13072575628757477, 0.20489716529846191, -0.05526958405971527, -0.138288676738739, -0.36414361000061035, 0.11958413571119308, 0.07821005582809448, 0.024605363607406616, -0.09531886130571365, 0.31896182894706726, 0.0025205835700035095, 0.009184633381664753, 0.008935223333537579, 0.012619118206202984, -0.02064608410000801], [-0.1330263912677765, 0.3327585756778717, 0.11600841581821442, -0.017757929861545563, 0.33722105622291565, -0.3266907036304474, -0.019955473020672798, 0.03245171159505844, -0.34768277406692505, 0.07946637272834778, -0.05275484919548035, 0.29932689666748047, -0.10643458366394043, -0.11115872859954834, 0.09310095757246017, 0.17614562809467316, -0.04190784692764282, -0.05509265139698982, -0.10431577265262604, 0.12515361607074738, -0.14351747930049896, 0.13470730185508728, -0.2166067659854889, 0.11531088501214981, -0.17618252336978912, 0.1804833561182022, 0.05467407405376434, 0.03585365042090416, -0.1607753038406372, 0.1537487804889679, -0.05003219097852707, -0.6009169816970825, -0.4328729510307312, 0.044608231633901596, -0.0035725990310311317, 0.1511899083852768, 0.052329618483781815, -0.1826906055212021, 0.11071213334798813, 0.05053913593292236, 0.11865643411874771, 0.0809473916888237, 0.09248833358287811, 0.015477715991437435, 0.29172271490097046, 0.07656722515821457, 0.023301023989915848, -0.19272467494010925, 0.07188420742750168, 0.11953087151050568, 0.06416866928339005, 0.12902933359146118, -0.06450924277305603, 0.0784422978758812, -0.1919308751821518, 0.19126632809638977, -0.017881382256746292, -0.23520581424236298], [0.08925677090883255, 0.11306266486644745, 0.07521828263998032, 0.08975145220756531, -0.03153993934392929, 0.11225395649671555, 0.11647645384073257, -0.1865725815296173, -0.2645106315612793, 0.12977880239486694, -0.10435976088047028, -0.1735871285200119, -0.04432864487171173, -0.06399655342102051, -0.3092508316040039, -0.18548168241977692, 0.011664128862321377, -0.11236616224050522, 0.12477089464664459, 0.18873509764671326, -0.0015417106915265322, 0.030228229239583015, -0.08411648124456406, 0.041159916669130325, 0.04839544743299484, 0.12356557697057724, -0.16135062277317047, 0.05625787004828453, 0.03258868679404259, 0.009440336376428604, -0.05832691118121147, -0.21543923020362854, -0.24067862331867218, 0.0038772698026150465, 0.08587691187858582, -0.8039197325706482, -0.012150952592492104, 0.06789770722389221, -0.05076879635453224, 0.21270810067653656, 0.1789911538362503, 0.04667491465806961, -0.1867997795343399, 0.08983568847179413, 0.05192681774497032, -0.42220959067344666, -0.13912710547447205, -0.06720324605703354, 0.02584625780582428, -0.3969099819660187, 0.03686029836535454, -0.019344588741660118, 0.3192470967769623, 0.00452024769037962, -0.018864553421735764, 0.07255085557699203, -0.14506784081459045, 0.07774166017770767], [0.22661171853542328, 0.004010016098618507, 0.15472890436649323, 0.10459966957569122, 0.07372155785560608, 0.1601923257112503, 0.1712781935930252, -0.2718914747238159, -0.1934920996427536, 0.073774054646492, 0.11377454549074173, -0.039457421749830246, 0.043068066239356995, -0.035476524382829666, 0.043608661741018295, 0.04261881485581398, 0.16085049510002136, 0.09733150154352188, 0.0731763169169426, 0.04581353813409805, -0.7485082149505615, 0.11303545534610748, -0.23162555694580078, 0.21868352591991425, -0.14453966915607452, -0.09312645345926285, -0.08220423758029938, -0.10446041822433472, -0.29605910181999207, -0.14765286445617676, -0.1679767668247223, -0.2802056670188904, 0.2431236058473587, -0.10977158695459366, 0.08310186862945557, -0.01861395128071308, -0.022099647670984268, -0.05148770287632942, 0.1633494645357132, 0.11570185422897339, 0.05801409110426903, -0.0026269694790244102, -0.370271235704422, -0.16008616983890533, -0.24605007469654083, 0.01731322705745697, -0.2667616605758667, -0.02843278832733631, 0.11217296123504639, 0.21104365587234497, -0.07804343849420547, -0.1877795159816742, 0.11408770084381104, -0.01673593558371067, -0.1329040676355362, -0.10201692581176758, -0.04090770334005356, 0.14880815148353577], [0.12233472615480423, -0.03231355920433998, 0.10589201748371124, -0.09523041546344757, 0.20961600542068481, -0.10100648552179337, -0.047991134226322174, -0.07541895657777786, -0.01995248906314373, 0.031360168009996414, 0.03817012161016464, -0.2611568570137024, -0.1768905371427536, -0.06533152610063553, -0.10489338636398315, -0.003130195662379265, -0.15599533915519714, 0.3198604881763458, -0.06486976891756058, 0.06258205324411392, -0.026565266773104668, 0.04717782884836197, 0.0971658006310463, 0.19652903079986572, -0.016282789409160614, 0.08717542886734009, 0.2371445894241333, 0.19566944241523743, 0.16615936160087585, -0.10333742201328278, 0.054242853075265884, -0.28088679909706116, -0.28411826491355896, 0.10801098495721817, 0.002161874668672681, 0.030256466940045357, -0.10015632957220078, -0.025063006207346916, 0.15814091265201569, -0.048632483929395676, 0.27324676513671875, 0.11418230086565018, 0.061671752482652664, 0.024063536897301674, -0.08181089162826538, 0.16058361530303955, -0.001936637912876904, 0.13497284054756165, -0.05185307189822197, 0.052414845675230026, -0.12210116535425186, -0.1606350988149643, 0.01976664736866951, 0.20146331191062927, 0.018239527940750122, 0.008249545469880104, -0.047092389315366745, -0.10204116255044937], [0.3333861231803894, 0.18050840497016907, -0.15043127536773682, -0.14055532217025757, -0.11785189807415009, -0.0027705745305866003, -0.015769165009260178, 0.04641766846179962, 0.16665823757648468, -0.08281853049993515, -0.009415832348167896, 0.11812000721693039, 0.3628689646720886, 0.06557510793209076, 0.07295452803373337, -0.18682534992694855, -0.10070417821407318, 0.050200268626213074, -0.3277283310890198, -0.03842321038246155, 0.1169036254286766, 0.27090880274772644, 0.15446527302265167, 0.14776886999607086, -0.18858911097049713, -0.1479780524969101, -0.20460990071296692, 0.3916749954223633, -0.1373882293701172, 0.4392756521701813, -0.10322684794664383, 0.07340151071548462, -0.2627003490924835, -0.23709648847579956, 0.19350793957710266, 0.011731712147593498, 0.0632510855793953, 0.023975703865289688, -0.003981168381869793, 0.0035467520356178284, -0.07317515462636948, 0.11391238868236542, 0.12547078728675842, -0.4789723753929138, -0.29861485958099365, 0.11480502784252167, 0.04636269807815552, 0.01868022419512272, -0.042930252850055695, 0.2102813422679901, 0.07752566039562225, 0.00017848282004706562, 0.03704181686043739, -0.06898167729377747, 0.2228250354528427, 0.0983724296092987, 0.1613578051328659, 0.04960079491138458], [-0.22828367352485657, -0.2455502152442932, 0.019402334466576576, -0.4649643003940582, 0.08658171445131302, 0.06054642051458359, -0.06215417757630348, 0.21442070603370667, -0.24600160121917725, 0.019627034664154053, 0.16225412487983704, 0.01609296351671219, 