{"features.0.weight": [[-0.23061929643154144, -0.213838592171669, -0.2104262411594391, -0.14100748300552368, -0.14381463825702667, -0.14102743566036224, -0.11932049691677094, 0.5660040974617004, 0.06528347730636597, 0.060318976640701294, -0.03278340399265289], [0.4433170557022095, 0.5915071964263916, 0.28498324751853943, 0.14796923100948334, -0.2718809247016907, 0.21793946623802185, 0.3754437565803528, -0.0019356474513188004, -0.08124764263629913, -0.1159123033285141, -0.26229092478752136], [0.10324486345052719, 0.13970084488391876, 0.09291955083608627, 0.07455407083034515, 0.06527800858020782, -0.01827591471374035, -0.03189535439014435, -0.5872190594673157, 0.08152707666158676, 0.00716486806049943, -0.017931880429387093], [0.04286933317780495, 0.11327942460775375, 0.11021796613931656, 0.1430879384279251, 0.12357017397880554, -0.11379149556159973, -0.059097982943058014, -0.08735819905996323, -0.058711081743240356, -0.4898397922515869, -0.287700355052948], [0.02726580947637558, 0.14912989735603333, 0.023555202409625053, 0.0044283876195549965, 0.013728249818086624, 0.10022684931755066, 0.12214241176843643, -0.22335147857666016, 0.09609326720237732, 0.2868783175945282, -0.24676822125911713], [-0.05158619210124016, -0.007948258891701698, 0.00024751893943175673, -0.05260324478149414, -0.044759009033441544, 0.06316259503364563, 0.035009268671274185, 0.5787092447280884, 0.27892667055130005, 0.09291956573724747, -0.010665057227015495], [4.3695097701856866e-05, 0.10356318950653076, 0.03356585279107094, 0.06454719603061676, 0.030962951481342316, -0.24227690696716309, -0.20927460491657257, 0.3362921476364136, -0.5242327451705933, -0.15224182605743408, -0.07308689504861832], [0.1962842047214508, 0.20024214684963226, 0.22564715147018433, 0.14751730859279633, -0.6631807684898376, -0.24417643249034882, -0.23617465794086456, -0.22047115862369537, 0.032032404094934464, 0.05289185792207718, -0.11445293575525284], [0.006722113583236933, 0.06597232818603516, -0.010190295986831188, -0.012186156585812569, -0.06390753388404846, -0.17447581887245178, -0.17442265152931213, 0.2960045635700226, 0.055265337228775024, -0.3632018268108368, 0.14598049223423004], [-0.04906182736158371, 0.334144651889801, -0.0636359304189682, -0.0005497274687513709, -0.28190699219703674, -0.07048346102237701, 0.0887485146522522, -0.026873232796788216, -0.03303709626197815, 0.3633747398853302, 0.007215219549834728], [0.11267691850662231, 0.18047674000263214, 0.1358322650194168, 0.14087612926959991, 0.07855457067489624, 0.20672838389873505, 0.2105284333229065, 0.23468442261219025, -0.36216866970062256, -0.2519770562648773, 0.12043967843055725], [0.013914033770561218, -0.12180554866790771, -0.04947173595428467, -0.07542223483324051, -0.07845108211040497, 0.17080537974834442, 0.18501825630664825, -0.19405224919319153, 0.48632869124412537, 0.22249703109264374, -0.214980810880661], [0.8795976042747498, 0.06357050687074661, -0.05235980078577995, -0.14890676736831665, 0.062042877078056335, -0.49295809864997864, 0.2635425627231598, -0.1631506085395813, -0.024402394890785217, -0.00872307363897562, -0.03510179743170738], [0.07516277581453323, 0.023443173617124557, 0.07776134461164474, 0.09054381400346756, 0.1642301082611084, 0.3233838677406311, 0.3290500044822693, -0.07160182297229767, -0.10493399202823639, 0.39240357279777527, -0.08486815541982651], [-0.16851583123207092, -0.21824178099632263, -0.18556253612041473, -0.222499281167984, -0.16145624220371246, -0.2180606871843338, -0.2311297506093979, -0.4671008288860321, -0.22728632390499115, -0.2983647584915161, -0.23439812660217285], [0.054998233914375305, 0.10926739871501923, 0.03959279879927635, 0.055482167750597, -0.053618889302015305, -0.02480480633676052, 0.0013069689739495516, 0.13355907797813416, 0.42658281326293945, 0.06279268860816956, -0.3158794641494751], [0.004478896502405405, 0.12092220783233643, -0.008330283686518669, -0.027451781556010246, -0.2661140561103821, -0.0012431713985279202, 0.003366387914866209, -0.1465136855840683, 0.5334945321083069, -0.2717611491680145, 0.06079716980457306], [0.055789850652217865, 0.04218801110982895, 0.05052914842963219, 0.09599188715219498, 0.21663400530815125, 0.2259691059589386, 0.2531716823577881, 0.4210225045681, -0.07054100185632706, -0.13439571857452393, -0.16072770953178406], [-0.12709081172943115, 0.03179306536912918, -0.1604558229446411, -0.13391432166099548, -0.30745983123779297, -0.11524639278650284, -0.14334827661514282, -0.01369229331612587, 0.043103210628032684, 0.22137251496315002, 0.44972455501556396], [-0.03261305391788483, 0.09053750336170197, 0.020333323627710342, 0.05373464152216911, 0.053245577961206436, 0.14382149279117584, 0.18554872274398804, -0.07427550107240677, 0.1322057843208313, -0.40323764085769653, -0.47281414270401], [0.042052365839481354, 0.09212137013673782, 0.0003005594771821052, -0.003762993263080716, -0.08574758470058441, 0.12712439894676208, 0.17895491421222687, -0.24113529920578003, -0.4234752953052521, 0.12026907503604889, 0.0919092670083046], [-0.17314200103282928, -0.1337142139673233, -0.1557052880525589, -0.10749304294586182, -0.1347590833902359, 0.08041863143444061, 0.09632876515388489, 0.0623265877366066, -0.014026859775185585, 0.44683200120925903, -0.44404035806655884]], "features.0.bias": [-0.053002405911684036, 0.3040951192378998, -0.010016166605055332, -0.1224566102027893, 0.15200932323932648, -0.05707533285021782, -0.2928152084350586, 0.1382497400045395, -0.3075595796108246, 0.30946680903434753, -0.3076532185077667, -0.02911839634180069, -0.05368615686893463, 0.23114021122455597, -0.33535444736480713, 0.18295925855636597, -0.3625210225582123, 0.21674565970897675, -0.24742381274700165, 0.2964209020137787, 0.3046862781047821, 0.32961827516555786], "features.2.weight": [[-0.05038371682167053, -0.12911269068717957, -0.3407246768474579, -0.052252911031246185, -0.09007035940885544, 0.1540890783071518, 0.12888981401920319, 0.1023256704211235, 0.056181490421295166, 0.10787293314933777, 0.3696883022785187, -0.19590535759925842, 0.011920494958758354, 0.19794315099716187, 0.39272451400756836, -0.26594147086143494, -0.1218084767460823, -0.426494836807251, -0.003416486782953143, -0.06194799765944481, 0.27404579520225525, -0.0030600212048739195], [0.20345525443553925, -0.1731199473142624, 0.09148059785366058, 0.07404737919569016, 0.32360923290252686, -0.005379770882427692, 0.2643049955368042, 0.12885896861553192, -0.18757839500904083, 0.1821463406085968, -0.25347086787223816, 0.1204245537519455, 0.03659029304981232, 0.01620287261903286, 0.11537763476371765, -0.027709495276212692, 0.10597538203001022, -0.34592074155807495, -0.08583277463912964, 0.21408334374427795, 0.0869661346077919, 0.15840208530426025], [0.2592402994632721, -0.0024545977357774973, -1.6751422882080078, -0.1779429018497467, -0.15074458718299866, 0.4494107961654663, 0.4008338451385498, -0.034282341599464417, -0.6992101669311523, 0.04497478902339935, -0.8323021531105042, -0.07187914103269577, 0.06784196943044662, 0.023016761988401413, -0.7138712406158447, -0.26465868949890137, -0.42662084102630615, -0.13831596076488495, 0.30576565861701965, 0.22634391486644745, -0.1472046971321106, 0.17220918834209442], [-0.08490052074193954, 0.19783318042755127, -0.25484785437583923, -0.018884506076574326, 0.13894471526145935, 0.004900602623820305, 0.542588472366333, 0.06431097537279129, -0.016586413607001305, -0.12706288695335388, -0.12319580465555191, -0.02908281795680523, -0.011696175672113895, -0.06013096496462822, 0.36721673607826233, -0.28716641664505005, 0.16275040805339813, -0.06367086619138718, 0.14737249910831451, 0.42401808500289917, -0.30187055468559265, 0.27848681807518005], [-0.14781831204891205, 0.027277948334813118, -0.32887735962867737, -0.13163800537586212, -0.0001182382256956771, 0.04339083656668663, 0.3260093331336975, 0.18055468797683716, -0.039897236973047256, 0.05862422659993172, 0.2148640900850296, 0.042381759732961655, -0.025729168206453323, -0.06692375987768173, 0.2678491473197937, -0.30744320154190063, -0.24211452901363373, 0.32522472739219666, -0.24966591596603394, -0.13286513090133667, 0.2210519015789032, 0.4326317608356476], [-0.34520766139030457, -0.2781553864479065, -0.20295129716396332, 0.27790215611457825, 0.10464690625667572, 0.4342803359031677, -0.13502489030361176, -0.04567139223217964, 0.3022754192352295, 0.07650154083967209, 0.21407641470432281, 0.1885083168745041, 0.06747835129499435, -0.08145328611135483, 0.1852329671382904, -0.05328977480530739, 0.5143088102340698, -0.06738430261611938, 0.470218688249588, -0.17611797153949738, 0.15127909183502197, 0.34235382080078125], [0.3098125755786896, 0.2744196653366089, -0.06298155337572098, -0.4862315058708191, 0.2672945559024811, 0.049861371517181396, -0.019158972427248955, -0.06205375865101814, -0.21480116248130798, -0.0026223992463201284, 0.08244757354259491, 0.08495702594518661, -0.022618232294917107, 0.050107087939977646, 0.5406988859176636, 0.006265164352953434, -0.057034868746995926, -0.1947702169418335, -0.24020631611347198, 0.013532459735870361, -0.11867503076791763, -0.13977672159671783], [-0.32678845524787903, -0.060106270015239716, 0.05236239731311798, 0.2807309031486511, -0.21559439599514008, -0.040446553379297256, -0.1400439590215683, -0.13329602777957916, 0.5895609855651855, 0.01913001760840416, 0.15511475503444672, -0.0045285397209227085, 0.008200699463486671, -0.09233534336090088, 0.14418092370033264, -0.15605787932872772, 0.15370436012744904, -0.06532787531614304, 0.6195298433303833, -0.09197667241096497, 0.10053598135709763, -0.6615979671478271], [-0.10156675428152084, 0.4047901928424835, -0.04676705598831177, -0.005254299845546484, -0.11976702511310577, 0.043526288121938705, -0.054121121764183044, 0.2619270384311676, -0.0659337118268013, -0.38484472036361694, 0.23838189244270325, 0.039675816893577576, -0.012232236564159393, -0.2787967026233673, -0.1479446440935135, 0.09390728920698166, 0.09357529878616333, -0.15749803185462952, 0.3000040650367737, -0.11049850285053253, 0.21412764489650726, -0.1241820678114891], [0.13162009418010712, 0.23433005809783936, -0.34912022948265076, -0.2584390342235565, 0.11800555139780045, 0.02475043758749962, -0.10995261371135712, -0.06419380009174347, 0.043808404356241226, -0.14353708922863007, 0.06415966898202896, 0.22819586098194122, -0.014532062225043774, -0.13198991119861603, -0.05399071052670479, 0.4492769241333008, -0.21535347402095795, 0.161836639046669, 0.08665324002504349, 0.06142646074295044, -0.5044485330581665, -0.09310654550790787], [0.16831955313682556, 0.2145901471376419, -0.27309948205947876, -0.15977798402309418, 0.130657359957695, 0.0010011991253122687, 0.2334575653076172, -0.16466256976127625, -0.5535742044448853, 0.08118735253810883, -0.18522384762763977, 0.05509079247713089, -0.04687534272670746, -0.2278153896331787, -0.4074196517467499, 0.19595672190189362, -0.14984188973903656, 0.16822250187397003, -0.12973687052726746, 0.03340798616409302, -0.23739778995513916, 0.07017955183982849], [0.1647855043411255, -0.11444558203220367, 0.24995696544647217, -0.1256890743970871, 0.06185731664299965, -1.2102757692337036, -2.3686683177948, 0.24519822001457214, -0.05623384937644005, -0.025815946981310844, -0.18107329308986664, 0.06927690654993057, 0.01642097905278206, -0.06684205681085587, -0.019207483157515526, 0.11907685548067093, 0.10264384746551514, -0.2372865080833435, -0.03612667694687843, 0.05310765653848648, -0.04606669768691063, -0.5097163319587708], [0.5507944822311401, 0.19595777988433838, 0.10461849719285965, 0.09175414592027664, 0.1551792174577713, 0.05669347569346428, 0.19180536270141602, 0.19042916595935822, 0.041575510054826736, 0.2966817021369934, -0.1421203464269638, 0.32513293623924255, -0.07830743491649628, -0.20262517035007477, 0.14524739980697632, 0.08586828410625458, 0.15967079997062683, -0.19299231469631195, 0.24857348203659058, 0.12870405614376068, 0.007243150845170021, 0.09894198179244995], [0.14729800820350647, -0.07486042380332947, -0.17432564496994019, -0.6399950981140137, 0.39953160285949707, -0.03936467692255974, 0.21845872700214386, 0.19346730411052704, 0.2120172530412674, 0.023121433332562447, -0.3071768581867218, 0.10556775331497192, 0.014375428669154644, 0.21504764258861542, 0.09714604169130325, -0.016857795417308807, -0.146924689412117, -0.1282084584236145, -0.16737154126167297, -0.26494911313056946, 0.05112973600625992, -0.10863806307315826], [-0.24318534135818481, -0.00840180553495884, -0.15204212069511414, -0.4854658246040344, 0.08538506180047989, -0.052836205810308456, 0.2876954674720764, 0.19056129455566406, 0.28635427355766296, -0.013230605982244015, -0.44429856538772583, 0.22348909080028534, -0.017345096915960312, 0.4103289246559143, -0.32091209292411804, -0.018541917204856873, -0.041687581688165665, 0.027702676132321358, 0.2844417691230774, 0.2995721697807312, 0.20507913827896118, -0.04713554307818413], [-0.044399797916412354, -0.037566352635622025, 0.2657463550567627, 0.04840296506881714, -0.07244295626878738, -0.1463347226381302, -0.03042892925441265, 0.07736370712518692, 0.145395889878273, 0.04198748245835304, 0.006417591590434313, 0.12675124406814575, -0.02927006036043167, -0.006759463809430599, 0.267943412065506, 0.0490671843290329, 0.008782293647527695, 0.31846460700035095, 0.08609887957572937, -0.2368168979883194, 0.04755726084113121, -0.06130288541316986], [0.09115646779537201, 0.08471223711967468, 0.031011898070573807, 0.1121533066034317, -0.16470128297805786, 0.10953692346811295, -0.2595272660255432, -0.0845157727599144, -0.29902464151382446, 0.05460377410054207, 0.05597611516714096, -0.27022334933280945, -0.0016659160610288382, 0.12574143707752228, 0.2844921946525574, -0.49453848600387573, -0.11891409754753113, 0.03164583817124367, 0.2064821720123291, -0.39849498867988586, 0.1460847109556198, -0.42740437388420105], [-0.32214152812957764, -0.02149202860891819, -0.22192580997943878, -0.02793225646018982, 0.1974308043718338, 0.22477222979068756, 0.20362770557403564, 0.1333485096693039, 0.2348099648952484, -0.15326227247714996, 0.012720117345452309, 0.08907180279493332, 0.0002171224623452872, -0.003470390336588025, 0.2437981814146042, 0.1304677575826645, 0.24445055425167084, 0.16785027086734772, 0.16642513871192932, 0.3117137849330902, -0.005489825736731291, 0.01481693610548973], [-0.06670934706926346, -0.11495325714349747, 0.3596931993961334, 0.18062107264995575, 0.04390169307589531, 0.4298507869243622, 0.41389989852905273, -0.013401591219007969, 0.15816210210323334, -0.027809225022792816, 0.08748170733451843, -0.4027974009513855, 0.10873357951641083, 0.23051027953624725, 0.17766882479190826, 0.05185176432132721, 0.16905340552330017, -0.12357352674007416, -0.20985591411590576, 0.016588864848017693, 0.0111918356269598, 0.21899470686912537], [-0.044133611023426056, -0.059918783605098724, -0.006081709638237953, -0.025075264275074005, -0.026625080034136772, -0.12268898636102676, 0.198860302567482, -0.057847149670124054, 0.13515958189964294, -0.2193593829870224, -0.1695423126220703, 0.09872052818536758, -0.049874018877744675, 0.23517689108848572, 0.14410251379013062, -0.01566614769399166, -0.13817591965198517, 0.01515597477555275, 0.2103537917137146, 0.14385783672332764, -0.09315463900566101, 0.26973670721054077], [-0.0533909946680069, -0.12703821063041687, 0.11828655004501343, 0.029971422627568245, -0.3360181450843811, -0.12010079622268677, 0.09277210384607315, -0.4012211263179779, 0.12863296270370483, 0.27196207642555237, 0.1969834864139557, -0.6697949767112732, 0.059960056096315384, -0.09078410267829895, -0.14671453833580017, -0.17947208881378174, 0.3034314513206482, -0.13434268534183502, -0.16971871256828308, -0.2192554920911789, -0.04589107632637024, 0.07788894325494766], [-0.011004115454852581, 0.04098346084356308, -0.2363157570362091, -0.06122913211584091, 0.10278463363647461, 0.05089791864156723, 0.15568242967128754, 0.0751817524433136, -0.1601008176803589, 0.18779146671295166, -0.032217659056186676, -0.16547538340091705, 0.738772988319397, -0.11748071759939194, -0.048313505947589874, -0.06788796186447144, -0.060856398195028305, -0.0023342471104115248, 0.13387268781661987, -0.04775010794401169, -0.1875968724489212, -0.109600730240345]], "features.2.bias": [0.1612933874130249, -0.02333945780992508, 0.049696389585733414, 0.08585602790117264, -0.21150200068950653, 0.038083773106336594, 0.12534651160240173, -0.16249696910381317, 0.08495480567216873, 0.20429174602031708, 0.41615036129951477, 0.16391198337078094, 0.10313385725021362, 0.19533255696296692, 0.10186166316270828, -0.2920913100242615, 0.1667313426733017, -0.28821542859077454, -0.026992665603756905, 0.15710754692554474, 0.2948814034461975, 0.16444076597690582], "features.4.weight": [[0.06284738332033157, -0.007995358668267727, -0.23000405728816986, 0.21217243373394012, -0.11176588386297226, 0.36338841915130615, -0.18694666028022766, 0.003775601740926504, -0.1806735247373581, -0.017716875299811363, -0.0011355302995070815, 0.030168583616614342, -0.01046732161194086, -0.08641533553600311, 0.3940122425556183, 0.32631558179855347, 0.18939654529094696, -0.01779392920434475, 0.13072068989276886, 0.21052676439285278, -0.5142552852630615, 0.19025124609470367], [0.07087038457393646, -0.05335763469338417, -0.01714329794049263, 0.09869882464408875, 0.12333488464355469, -0.019622059538960457, 0.008975693956017494, 0.3849242925643921, 0.06682063639163971, 0.31087401509284973, -0.25623491406440735, 0.10656142234802246, 0.24994611740112305, 0.16268335282802582, -0.04182761535048485, 0.22394175827503204, -0.034668661653995514, 0.12235444784164429, 0.29074257612228394, 0.10681499540805817, 0.0366891510784626, -0.058349981904029846], [0.1361154168844223, 0.2039465308189392, -0.46655499935150146, -0.5503903031349182, -0.5130094289779663, 0.14404024183750153, 0.022820742800831795, 0.008583225309848785, -0.15291361510753632, -0.06569087505340576, 0.30308786034584045, 0.05237380042672157, 0.13110771775245667, 0.4755360782146454, 0.04051150381565094, -0.40841126441955566, 0.36683619022369385, -0.08790867030620575, -0.036160215735435486, 0.11845829337835312, 0.204847052693367, -0.00784553587436676], [-0.24696864187717438, -0.07569604367017746, -0.5511935949325562, -0.18396152555942535, -0.42988961935043335, 0.02700345776975155, 0.1041501984000206, 0.09478682279586792, -0.2683016061782837, 0.14956943690776825, -0.2685345411300659, 0.2929365932941437, 0.20667071640491486, -0.03818618506193161, 0.25589731335639954, -0.17432132363319397, 0.104729063808918, 0.06720685958862305, 0.16722124814987183, -0.1011032685637474, -0.14296121895313263, -0.08670832961797714], [-0.8740478754043579, -0.044238828122615814, 0.255073219537735, 0.05344211310148239, -0.28187552094459534, 0.4638788402080536, -0.12012173980474472, -0.42602404952049255, -0.12920960783958435, -0.16225728392601013, 0.003464458743110299, -0.03256799653172493, 0.17023615539073944, 0.023837832733988762, 0.1401376575231552, 0.07969263941049576, 0.06451558321714401, 0.10803880542516708, -0.049765437841415405, -0.013940219767391682, -0.40563657879829407, -0.044492077082395554], [0.12133277207612991, 0.1302727311849594, -1.1182711124420166, -0.10029398649930954, 0.09763694554567337, 0.14939236640930176, -0.03720590099692345, -0.2807231545448303, 0.13653412461280823, 0.5083958506584167, -0.38139835000038147, -0.07062692195177078, -0.38426074385643005, -0.1823408454656601, 0.020291630178689957, 0.23337224125862122, 0.10831129550933838, -0.054812680929899216, 0.16311763226985931, 0.1485445499420166, 0.05142858624458313, 0.04755116254091263], [0.27315786480903625, -0.040484797209501266, 0.3675491213798523, -0.30967608094215393, 0.23149974644184113, 0.013492071069777012, -0.08330412954092026, 0.3129294812679291, 0.1568572074174881, -0.28573065996170044, -0.2527064085006714, -0.020546235144138336, -0.013795968145132065, 0.07770000398159027, 0.20343659818172455, -0.2392026036977768, 0.07422059029340744, 0.14407001435756683, 0.0023032501339912415, -0.284442275762558, -0.20123231410980225, -0.07220060378313065], [-0.8187799453735352, -0.06472454965114594, -0.17215050756931305, -0.038231879472732544, -0.3252228796482086, -0.45956480503082275, -0.4317711591720581, -1.409017562866211, -0.1341732144355774, 0.06365150958299637, 0.18713563680648804, 0.3982548117637634, -7.599357195431367e-05, -0.11012192815542221, 0.2339279055595398, 0.7012525200843811, 0.1877990961074829, 0.15516865253448486, 0.35687223076820374, 0.09049130231142044, 0.07714208215475082, 0.12673580646514893], [-0.029995325952768326, 0.3305772840976715, -0.10395048558712006, 0.4040212035179138, 0.17425097525119781, -0.08782901614904404, 0.07879584282636642, 0.05911799147725105, 0.20370817184448242, -0.30111587047576904, 0.1032155379652977, -0.38276752829551697, -0.012542642652988434, 0.09817761927843094, -0.039609480649232864, -0.19125410914421082, 0.13243182003498077, 0.13452160358428955, -0.2627391517162323, 0.15678004920482635, 0.21792475879192352, -0.03293948620557785], [-0.06442515552043915, -0.21645155549049377, 0.20030762255191803, 0.1024489775300026, 0.017620490863919258, 0.2922530472278595, 0.3217813968658447, 0.009634608402848244, 0.03827156871557236, -0.1628659963607788, -0.14444611966609955, 0.22494983673095703, -0.14736485481262207, -0.23740872740745544, 0.25308990478515625, -0.25688329339027405, -0.17080165445804596, -0.21687129139900208, -0.048061974346637726, -0.10373135656118393, -0.1787565052509308, -0.020114876329898834], [-0.2818632423877716, 0.11320576816797256, -0.1301199048757553, 0.266146719455719, 0.099991075694561, 0.19043183326721191, -0.18895688652992249, 0.07738015055656433, 0.07886520028114319, -0.032430484890937805, 0.13505975902080536, 0.2659684121608734, 0.11838176846504211, 0.2627975046634674, -0.2881354093551636, 0.15910525619983673, 0.15979346632957458, -0.4299825131893158, 0.14875291287899017, -0.05543086677789688, -0.04790695011615753, -0.1009930670261383], [0.2151212841272354, 0.07266221940517426, 0.034736137837171555, -0.1391238123178482, 0.024155069142580032, -0.35462766885757446, 0.16198700666427612, 0.23613420128822327, 0.3719426989555359, 0.1503959745168686, 0.006643741391599178, -0.04798976331949234, 0.28701481223106384, 0.10742857307195663, 0.1744338423013687, -0.2322230339050293, 0.05921807885169983, 0.2261313498020172, -0.1535477489233017, 0.06627596914768219, 0.11524020880460739, -0.22510012984275818], [0.028869004920125008, 0.11814293265342712, 0.028044819831848145, -0.1980104148387909, 0.10859882086515427, -0.08229541778564453, -0.09013023227453232, 0.04809155315160751, 0.003300286363810301, -0.002502922434359789, -0.11573070287704468, -0.053870782256126404, 0.16270945966243744, -0.16833029687404633, -0.13287648558616638, -0.136042982339859, 0.09878462553024292, -0.18388426303863525, -0.2291649580001831, 0.1094287857413292, -0.16452255845069885, 0.12443799525499344], [-0.08885987848043442, -0.16239462792873383, -0.10533487051725388, -0.2225157618522644, -0.14167796075344086, -0.2290050983428955, -0.20121018588542938, 0.015383318066596985, -0.202361598610878, 0.10912219434976578, 0.18662314116954803, -0.03055751323699951, -0.09041640907526016, -0.09327224642038345, -0.1341542750597, 0.02207592874765396, -0.08458817005157471, 0.13731086254119873, -0.173395037651062, -0.22662487626075745, 0.1851809322834015, -0.1628616452217102], [0.11614255607128143, 0.1181599572300911, 0.17795465886592865, -0.17820705473423004, 0.08544512838125229, 0.46827104687690735, -0.21863485872745514, -0.25958460569381714, -0.27797600626945496, -0.27155542373657227, 0.08815501630306244, 0.12226364761590958, 0.10802994668483734, -0.3051726818084717, 0.25692346692085266, 0.26658838987350464, -0.29416921734809875, 0.07380054146051407, -0.04868306592106819, -0.18609559535980225, -0.26532188057899475, 0.023213578388094902], [0.18416592478752136, -0.04903632029891014, 0.046938877552747726, 0.10249723494052887, -0.016745343804359436, 0.24569456279277802, -0.13991239666938782, 0.1168266236782074, 0.023300785571336746, 0.248503178358078, -0.49540552496910095, -0.3083914816379547, 0.06125486269593239, 0.11661995947360992, -0.05794258415699005, -0.13010753691196442, 0.36342161893844604, -0.11965594440698624, -0.3675535321235657, -0.19964367151260376, 0.21848568320274353, -0.04258834198117256], [-0.13518208265304565, -0.27880147099494934, -0.07534486055374146, 0.09315742552280426, 0.2817084491252899, 0.07485043257474899, -0.04059021174907684, -0.022791577503085136, -0.013110172003507614, 0.3729301691055298, 0.28443586826324463, -0.2614704668521881, -0.05875154584646225, -0.18383866548538208, -0.2586055397987366, -0.464287668466568, 0.4064883887767792, -0.06587588787078857, -0.3092625141143799, -0.1258096843957901, 0.18996234238147736, -0.10749080032110214], [-0.14885205030441284, -0.1438583880662918, -0.10141877084970474, 0.2371140569448471, -0.07447613775730133, -0.1859264075756073, 0.09385014325380325, 0.06453777849674225, 0.4031418263912201, 0.1897539496421814, -0.19479411840438843, -0.1669662445783615, 0.0976714938879013, 0.11630230396986008, 0.12125410884618759, 0.3444659113883972, 0.2047090381383896, -0.1525329351425171, 0.10324408113956451, -0.002038763603195548, -0.07666043192148209, -0.15522527694702148], [-0.28564873337745667, -0.2734232246875763, 0.3212619721889496, 0.08953218907117844, -0.07682138681411743, 0.2220856100320816, 0.15307147800922394, 0.20824970304965973, -0.011185115203261375, -0.45179346203804016, 0.06023678556084633, 0.17372432351112366, 0.13312405347824097, 0.04225217550992966, 0.04386141896247864, -0.11690423637628555, 0.04344248026609421, -0.04108533263206482, 0.19581179320812225, 0.3591209948062897, -0.3177962601184845, -0.0009193890728056431], [0.2054402083158493, -0.0009125812212005258, 0.3286207318305969, -0.27780866622924805, -0.1619836539030075, -0.08859029412269592, -0.2207137942314148, 0.2842906713485718, -0.3131082057952881, 0.1866476833820343, -0.255048006772995, -0.16371168196201324, 0.20175665616989136, 0.2960243225097656, 0.04670366272330284, 0.25594034790992737, 0.05666837468743324, 0.09697302430868149, -0.2173408567905426, 0.19498763978481293, -0.11342309415340424, -0.002093660645186901], [-0.32789191603660583, -0.19472824037075043, -0.12781701982021332, -0.036355867981910706, 0.2436666190624237, -0.14599426090717316, 0.2124374359846115, 0.3974822461605072, 0.28189817070961, -0.08116969466209412, 0.18648335337638855, 0.09883248060941696, -0.013394863344728947, 0.18607237935066223, 0.16516031324863434, 0.034859124571084976, -0.27192223072052, -0.18806986510753632, 0.10848591476678848, -0.09113787859678268, -0.23917540907859802, -0.20796926319599152], [-0.08545322716236115, -0.28194504976272583, 0.5135140419006348, -0.17341740429401398, -0.11202827841043472, -0.00937498640269041, -0.11584024131298065, -0.5100530982017517, 0.15357334911823273, -0.39353761076927185, 0.23919875919818878, 0.33349886536598206, 0.12019040435552597, -0.06055513769388199, 0.2198662906885147, 0.018616177141666412, 0.29570382833480835, 0.03697642683982849, -0.010369345545768738, 0.041213613003492355, 0.14245232939720154, -0.009516558609902859]], "features.4.bias": [-0.015957366675138474, -0.12287051230669022, 0.08890878409147263, 0.016421731561422348, 0.12315330654382706, -0.07535544037818909, 0.13171397149562836, -0.224130317568779, -0.15642490983009338, 0.20665669441223145, -0.2528974711894989, -0.09581974148750305, -0.19427618384361267, -0.11221911013126373, -0.019785718992352486, 0.08076154440641403, 0.0709935873746872, 0.04090527072548866, 0.028915030881762505, -0.1428571343421936, 0.1969236135482788, -0.2132422775030136], "features.6.weight": [[0.08906775712966919, -0.025415200740098953, 0.124583899974823, -0.44738349318504333, 0.07007569819688797, 0.1854124218225479, 0.1816510707139969, -0.4512903094291687, 0.012302431277930737, 0.4298062026500702, -0.38006097078323364, 0.09777691215276718, -0.039350878447294235, -0.011718977242708206, -0.19373294711112976, -0.12021049112081528, -0.19696775078773499, 0.1179981604218483, 0.031141893938183784, 0.45129653811454773, 0.09022888541221619, -0.19762593507766724], [0.08126211911439896, -0.4659392237663269, 0.2249738723039627, -0.4263283312320709, -0.2651083469390869, -0.25562626123428345, 0.08579778671264648, -0.9092651009559631, -0.4157806634902954, -0.36487269401550293, -0.2792767286300659, 0.025976169854402542, 0.027560122311115265, -0.2009403109550476, -0.2878301739692688, 0.11898139119148254, 0.1219199150800705, -0.2618064284324646, 0.16058334708213806, 0.1757359653711319, 0.19614049792289734, 0.14697086811065674], [-0.24681933224201202, -0.17841646075248718, 0.10352060198783875, 0.26790446043014526, -0.1509447991847992, 0.08976639807224274, 0.11328504234552383, -0.1951143443584442, 0.04731283709406853, 0.2394532561302185, -0.11564414203166962, -0.16432638466358185, 0.129596546292305, 0.0371624156832695, 0.022597866132855415, 0.11138399690389633, 0.2681578993797302, -0.10984496027231216, 0.02089666947722435, 0.27455466985702515, 0.4040270447731018, -0.45993128418922424], [-0.20943795144557953, -0.08279281854629517, 0.19110465049743652, -0.1507387012243271, 0.05686435103416443, -0.09890133887529373, -0.00853322446346283, 0.1236308217048645, -0.19199879467487335, -0.030895009636878967, -0.20251451432704926, -0.015683099627494812, -0.0464634895324707, 0.059448689222335815, -0.19128891825675964, 0.06197190284729004, 0.10060986876487732, -0.16206207871437073, -0.08818097412586212, 0.05467468500137329, 0.034349337220191956, 0.11232984066009521], [-0.03848161920905113, -0.0273070577532053, 0.3192100524902344, -0.08545003086328506, -0.062057070434093475, 0.05731574818491936, 0.1539013832807541, 0.5870873332023621, -0.2053145170211792, -0.10344623774290085, 0.3913482129573822, 0.37912753224372864, -0.028043007478117943, -0.13217070698738098, -0.15963011980056763, -0.2893175482749939, -0.2074134796857834, -0.057339150458574295, 0.2808317244052887, 0.028676560148596764, 0.04175090789794922, -0.16240383684635162], [-0.03003573790192604, 0.296053946018219, 0.19090254604816437, -0.052564073354005814, 0.25049784779548645, 0.40288081765174866, -0.026880281046032906, 0.16230404376983643, -0.20594120025634766, 0.30667611956596375, 0.19581016898155212, -0.17315243184566498, -0.025527670979499817, 0.0021105557680130005, -0.2987688481807709, -0.12703700363636017, 0.1907578706741333, 0.15123358368873596, 0.14022448658943176, 0.287177711725235, -0.20649223029613495, -0.0014636256964877248], [0.2455524355173111, -0.33147546648979187, 0.24554120004177094, 0.15934991836547852, -0.2153843343257904, 0.03876543417572975, -0.0411214679479599, -0.211180180311203, 0.3727894425392151, -0.08502411842346191, 0.09433165192604065, 0.21804407238960266, -0.04015614464879036, -0.0932905301451683, 0.18713043630123138, 0.05326985940337181, 0.1067066341638565, 0.1574462354183197, 0.1599489152431488, 0.03752006217837334, 0.05661290884017944, -0.44470545649528503], [0.16868996620178223, -0.11440856009721756, -0.15243777632713318, -0.02265769988298416, -0.2358054369688034, 0.15380720794200897, 0.07964128255844116, -0.09922053664922714, -0.10323289036750793, 0.06575550884008408, 0.12065739929676056, -0.1987810581922531, -0.08158428966999054, 0.058046698570251465, 0.04131528362631798, -0.05240586772561073, -0.008767012506723404, 0.058456968516111374, -0.03756716474890709, 0.04501425847411156, 0.1732032150030136, 0.15374909341335297], [-0.01482328213751316, 0.06765994429588318, -0.27268797159194946, 0.21446511149406433, 0.0755033865571022, 0.08762697875499725, 0.631438136100769, 0.6680328249931335, -0.07033555209636688, 0.17000634968280792, -0.46692535281181335, -0.09606818854808807, 0.05656096711754799, -0.034030526876449585, -0.098048634827137, -0.08295634388923645, 0.27150025963783264, 0.23586945235729218, -0.018370462581515312, -0.04882713407278061, -0.14363521337509155, 0.1589765101671219], [0.08258435875177383, 0.04363568127155304, 0.08993597328662872, -0.23244057595729828, 0.18504607677459717, 0.29621392488479614, -0.20990969240665436, -0.23988915979862213, -0.06535445898771286, 0.2086801826953888, -0.121678926050663, -0.18165962398052216, -0.08355701714754105, 0.04931623488664627, -0.21715231239795685, -0.29722166061401367, -0.1584436446428299, 0.0992383360862732, 0.19088269770145416, 0.35886070132255554, 0.17204654216766357, -0.2198823094367981], [-0.09929259866476059, 0.12624680995941162, -0.23180796205997467, 0.03195551037788391, 0.013688613660633564, 0.1019788309931755, 0.26907455921173096, -0.321910560131073, 0.29396823048591614, -0.34830936789512634, 0.2824079394340515, 0.008163237012922764, 0.04043086990714073, 0.10176948457956314, -0.13236309587955475, 0.2755599915981293, 0.14266543090343475, -0.020592840388417244, -0.15363706648349762, -0.05835191160440445, -0.10331825911998749, -0.1625034064054489], [0.15967969596385956, -0.07863152772188187, 0.019484542310237885, 0.1168445274233818, 0.19896012544631958, 0.20871245861053467, -0.00031372674857266247, 0.3589607775211334, 0.05246435105800629, -0.0456070713698864, -0.44527900218963623, -0.149746835231781, 0.1923392415046692, -0.18804943561553955, -0.17706699669361115, -0.07693009078502655, -0.31023216247558594, -0.04180416464805603, 0.13836292922496796, -0.07036063820123672, 0.17856653034687042, 0.04948147386312485], [-0.18267887830734253, -0.18541930615901947, 0.0983210876584053, 0.05820569768548012, -0.08289718627929688, -0.2228410392999649, -0.12045609951019287, -0.14531970024108887, -0.17861083149909973, -0.1203230619430542, 0.07540111243724823, 0.14234822988510132, 0.05754542350769043, 0.17568612098693848, -0.05867026746273041, -0.029109232127666473, -0.11953730881214142, -0.12735892832279205, 0.1876802146434784, 0.015220832079648972, -0.0068665011785924435, -0.01739415153861046], [0.11311808973550797, -0.11022134125232697, -0.16265971958637238, 0.42016568779945374, -0.023822307586669922, -0.25071918964385986, 0.2350446581840515, 0.017970280721783638, 0.16239549219608307, 0.019647864624857903, -0.2199910581111908, 0.031102005392313004, 0.12109722942113876, -0.13586387038230896, 0.04158387333154678, 0.2285957783460617, 0.2625519633293152, 0.13366080820560455, -0.060755789279937744, -0.4424658417701721, 0.3281058371067047, -0.3870255947113037], [-0.1993243247270584, 0.19075775146484375, -0.02039697766304016, 0.15222035348415375, -0.2731468081474304, -0.1368313878774643, 0.19465020298957825, -0.5405933856964111, 0.36156579852104187, -0.11087311059236526, 0.11880461126565933, -0.10311145335435867, 0.15005595982074738, -0.19060532748699188, 0.25631457567214966, 0.4858061373233795, -0.12286235392093658, -0.16430754959583282, 0.17258436977863312, -0.3612959384918213, 0.13686855137348175, 0.24702006578445435], [0.2706616222858429, 0.08107541501522064, 0.21608823537826538, 0.07591341435909271, -0.11077902466058731, 0.11793480068445206, -0.13404473662376404, -0.11574867367744446, 0.29561707377433777, 0.27436792850494385, 0.17259818315505981, 0.04484162479639053, -0.02375348098576069, -0.03582305461168289, -0.12877309322357178, 0.1237935721874237, 0.19051317870616913, 0.009143833070993423, 0.2845333516597748, -0.048247870057821274, -0.07897588610649109, -0.3598954975605011], [0.15525881946086884, 0.2749873697757721, 0.019122334197163582, -0.2709977328777313, 0.08953076601028442, -0.0192701518535614, -0.20134708285331726, -0.3918406069278717, -0.5347030758857727, -0.2564881443977356, 0.24394533038139343, 0.036251962184906006, -0.0933145135641098, -0.09578245878219604, 0.12337294965982437, 0.08505402505397797, -0.20827455818653107, 0.2033790946006775, -0.14344576001167297, -0.13692069053649902, 0.11697196215391159, 0.08020590990781784], [-0.02899271249771118, 0.12574662268161774, -0.21892587840557098, 0.04066136106848717, -0.08792506158351898, -0.04909814894199371, 0.1869136393070221, 0.04699377715587616, 0.34982576966285706, -0.14852140843868256, 0.09067106246948242, 0.13033588230609894, 0.1596556454896927, 0.009097161702811718, 0.45382535457611084, 0.27032771706581116, 0.281043142080307, -0.1491711586713791, -0.32484111189842224, 0.1654030680656433, 0.17309774458408356, 0.12192302197217941], [-0.3076140880584717, 0.16269278526306152, 0.08697104454040527, 0.07500484585762024, -0.21148167550563812, -0.3445606827735901, 0.05688149109482765, -0.09033863246440887, 0.22552387416362762, -0.10891418904066086, 0.10272184759378433, 0.26576390862464905, -0.1147371456027031, -0.008630656637251377, 0.3042534589767456, 0.14473791420459747, 0.2323443591594696, 0.11570688337087631, -0.21700981259346008, -0.025824012234807014, 0.15803784132003784, -0.5364429950714111], [-0.037412047386169434, -0.035629596561193466, -0.08558396250009537, -0.06992298364639282, 0.4858933985233307, 0.21450014412403107, -0.016329018399119377, -0.3124159872531891, -0.2990919053554535, -0.01533864438533783, 0.1966264247894287, 0.17642748355865479, -0.01732465624809265, 0.09471318125724792, 0.18149031698703766, 0.2156495749950409, 0.23021931946277618, -0.2342492938041687, -0.4594963788986206, -0.08273424953222275, -0.24804748594760895, -0.328217089176178], [-0.5091552138328552, 0.009938468225300312, -0.0796910971403122, -0.04883056879043579, 0.05646178126335144, -0.214116632938385, -0.2117462456226349, -0.2221098691225052, -0.22341613471508026, 0.13404805958271027, 0.07970879971981049, -0.028837593272328377, 0.12771302461624146, 0.03591495752334595, -0.08212615549564362, -0.16983658075332642, 0.06946688890457153, -0.24442851543426514, 0.09640833735466003, -0.48300471901893616, 0.14681141078472137, 0.04730170592665672], [0.18092875182628632, 0.14392459392547607, 0.11395134031772614, -0.28651687502861023, 0.1430179625749588, 0.3885814845561981, -0.2104620337486267, 0.27430930733680725, 0.02994810976088047, 0.15060508251190186, 0.0108253825455904, -0.22620625793933868, -0.18089795112609863, 0.15514777600765228, -0.14528794586658478, 0.056017305701971054, -0.18397171795368195, -0.19750013947486877, 0.09118892252445221, -0.016274791210889816, 0.05962312966585159, -0.5078621506690979]], "features.6.bias": [0.10020601749420166, -0.08413488417863846, 0.11697359383106232, -0.11287661641836166, -0.13455581665039062, -0.38033339381217957, -0.17575784027576447, -0.1474475860595703, 0.1243138313293457, 0.1892014890909195, 0.24289989471435547, 0.16337838768959045, -0.07959004491567612, -0.22444145381450653, 0.1308165341615677, -0.2279634028673172, -0.07383330166339874, 0.10971015691757202, -0.05558057501912117, -0.09164094179868698, -0.11436743289232254, 0.09972123056650162], "features.8.weight": [[0.09959251433610916, -0.10713424533605576, -0.057577066123485565, -0.15167678892612457, 0.2678188383579254, 0.46579620242118835, -0.011475108563899994, -0.21025893092155457, -0.02919762022793293, 0.08378871530294418, 0.3761940896511078, -0.22169941663742065, -0.048604320734739304, 0.4680926501750946, 0.3770029544830322, 0.2580548822879791, 0.28380441665649414, 0.2538471817970276, 0.24497540295124054, 0.15075699985027313, -0.03218501806259155, -0.23563410341739655], [-0.12328193336725235, 0.16522181034088135, 0.035380322486162186, 0.14430758357048035, -0.06923085451126099, 0.08864418417215347, 0.06372110545635223, 0.15416857600212097, 0.06315482407808304, 0.0023794230073690414, 0.16780506074428558, 0.11494120210409164, 0.19488883018493652, -0.10775014758110046, -0.20127062499523163, -0.01355011761188507, 0.09600470960140228, 0.03702713921666145, 0.09661733359098434, 0.011275860480964184, -0.02268657088279724, -0.27091091871261597], [-0.08786489069461823, -0.6427146196365356, -0.26085808873176575, 0.108583003282547, -0.10520344227552414, 0.5267688632011414, 0.17749348282814026, -0.06002090126276016, -0.0667281374335289, -0.04803252965211868, -0.06845442205667496, -0.20675028860569, 0.012769244611263275, 0.1313270628452301, 0.3923746645450592, 0.07975028455257416, 0.37854209542274475, -0.12016914784908295, 0.22713692486286163, -0.08851145207881927, 0.12492123991250992, -0.40859490633010864], [0.16909191012382507, 0.04495488479733467, -0.23189829289913177, -0.021982505917549133, -0.1566680669784546, -0.01046706922352314, 0.10689019411802292, 0.14088863134384155, 0.2409057319164276, 0.12598159909248352, -0.1328292340040207, 0.04773306846618652, 0.04131665825843811, 0.189602792263031, 0.007273536641150713, 0.038304004818201065, 0.07969681918621063, 0.1663171648979187, -0.1960875391960144, -0.24866539239883423, -0.20876269042491913, -0.247073233127594], [0.2096763551235199, -0.25100117921829224, -0.4961419999599457, 0.03379261493682861, 0.05110946297645569, 0.16780324280261993, 0.16620978713035583, -0.18541911244392395, -0.16109658777713776, 0.2887101471424103, 0.06600304692983627, -0.20455215871334076, 0.14830145239830017, 0.3544517755508423, -0.3628499209880829, 0.1591780185699463, 0.2046739161014557, -0.14024774730205536, 0.23230527341365814, -0.20820355415344238, -0.19243620336055756, -0.11616560071706772], [0.10052771121263504, 0.21295949816703796, 0.0622006356716156, 0.0019823312759399414, 0.07533615827560425, -0.18658018112182617, -0.03988978639245033, -0.08103600144386292, -0.2034132480621338, -0.1112193614244461, -0.036203429102897644, 0.033603642135858536, 0.1811915636062622, -0.09010010212659836, 0.05126737430691719, 0.19637930393218994, 0.1586245596408844, -0.16439619660377502, 0.023005502298474312, 0.17164397239685059, 0.12626397609710693, 0.10542669892311096], [0.10268348455429077, -0.047012072056531906, -0.21577191352844238, -0.13534186780452728, 0.2813764214515686, 0.4997566044330597, 0.25583964586257935, -0.22829276323318481, 0.03183174133300781, -0.1316358596086502, 0.0638452023267746, -0.20700490474700928, -0.007922069169580936, 0.3522416353225708, 0.16127964854240417, 0.138068288564682, 0.26647788286209106, 0.07485925406217575, 0.3513706922531128, -0.10832390934228897, 0.036904074251651764, -0.14387789368629456], [0.10039511322975159, -0.20618382096290588, 0.1538609266281128, -0.15508291125297546, 0.09739774465560913, -0.0664774626493454, -0.08060237765312195, -0.16692665219306946, 0.01037132740020752, -0.15966901183128357, -0.205509752035141, -0.09690693765878677, 0.10686665773391724, -0.15369804203510284, -0.047281503677368164, 0.04544910788536072, -0.14583256840705872, 0.20457646250724792, -0.12136392295360565, -0.03155292570590973, -0.16005191206932068, 0.11075565218925476], [0.026124723255634308, 0.5926021337509155, 0.10511375963687897, 0.11940500140190125, -0.09298700839281082, -0.25979968905448914, 0.12126076966524124, 0.058874983340501785, -0.3293873071670532, 0.23293247818946838, -0.5783633589744568, 0.02286086231470108, -0.10448309034109116, 0.7729616761207581, 0.11125200986862183, -1.283986210823059, -0.6371014714241028, 0.29830202460289, 0.011187665164470673, -0.38884469866752625, 0.30260688066482544, 0.04021617770195007], [0.04889463633298874, 0.3559689223766327, 0.21290217339992523, -0.08591271936893463, -0.19130045175552368, -0.6755110621452332, 0.33034437894821167, 0.13127551972866058, 0.012905255891382694, -0.1869407296180725, 0.17701412737369537, 0.07676538079977036, 0.18091493844985962, -0.3057888448238373, -0.2689267694950104, 0.3111511468887329, -0.628894567489624, -0.17819666862487793, 0.012409315444529057, 0.243930846452713, 0.10553769022226334, 0.05089818686246872], [-0.40064921975135803, 0.21952839195728302, -0.584778904914856, 0.1618204116821289, 0.20689436793327332, 0.432064414024353, 0.09523382037878036, -0.077425017952919, -0.3277851343154907, 0.04473710060119629, 0.22674843668937683, 0.18223246932029724, -0.03639378771185875, -0.2803044617176056, 0.10418862849473953, 0.05657390505075455, 0.2721908986568451, 0.03945232555270195, -0.11973430216312408, -0.8186126351356506, 0.2884928286075592, -0.020603911951184273], [-0.10234655439853668, -0.3702932894229889, 0.011614974588155746, -0.12563730776309967, 0.4377772808074951, 0.4415746331214905, 0.4027729332447052, 0.04456941783428192, 0.05204736813902855, -0.20129312574863434, 0.31613942980766296, -0.039391517639160156, 0.1934037208557129, 0.38137495517730713, 0.15496401488780975, 0.2819092571735382, 0.22256799042224884, 0.20047728717327118, 0.2936159670352936, -0.13139405846595764, -0.2740061581134796, 0.14889897406101227], [0.17872290313243866, 0.1854904741048813, 0.13806729018688202, 0.08675754070281982, -0.24660491943359375, -0.12011025100946426, -0.2370511144399643, 0.06537077575922012, 0.304932177066803, 0.2305006980895996, 0.07632026821374893, 0.030460931360721588, -0.13832686841487885, -0.47080090641975403, 0.06977207958698273, -0.028887765482068062, 0.0466621071100235, -0.03915955126285553, 0.03987325727939606, 0.05220182612538338, 0.19295929372310638, 0.1096600666642189], [-0.016549453139305115, -0.11130712926387787, -0.1225108727812767, 0.1718136966228485, -0.02562698721885681, -0.0021436214447021484, -0.19843408465385437, 0.19613921642303467, -0.08048440515995026, 0.15810248255729675, -0.15569603443145752, -0.12016735970973969, -0.051636070013046265, -0.115411177277565, -0.1563766598701477, -0.10215577483177185, -0.15591728687286377, -0.18094083666801453, 0.04510533809661865, -0.0444817841053009, -0.18091675639152527, 0.10769140720367432], [-0.449160635471344, -0.10540895909070969, 0.3459812104701996, 0.08615121245384216, -0.13543583452701569, -0.1708516776561737, 0.2620028853416443, 0.166087806224823, 0.2658082842826843, 0.02951974794268608, 0.14677397906780243, -0.23279358446598053, -0.15657150745391846, -0.2540639340877533, 0.09422407299280167, 0.2739184498786926, -0.04984079673886299, -0.19242775440216064, 0.0791604220867157, 0.030520334839820862, -0.07119298726320267, 0.16927222907543182], [0.21751262247562408, 0.03367404639720917, -0.3008735179901123, -0.02638210356235504, -0.17147372663021088, 0.36993980407714844, -0.024392634630203247, -0.05088278651237488, -0.03914886340498924, 0.12181303650140762, -0.13896428048610687, 0.10300466418266296, -0.1887870877981186, -0.0942949578166008, -0.2661558985710144, 0.01945561356842518, 0.15570788085460663, -0.1697196364402771, 0.21044009923934937, 0.05414147675037384, -0.15650446712970734, 0.10166909545660019], [-0.17590942978858948, -0.8138363361358643, -0.37039056420326233, -0.13120386004447937, 0.23014143109321594, 0.7179473042488098, 0.1935187727212906, 0.06444927304983139, 0.23348647356033325, -0.0026916530914604664, -0.10160254687070847, -0.18016263842582703, 0.0983491837978363, 0.29999545216560364, 0.18424499034881592, 0.08176806569099426, 0.05455796793103218, 0.16719950735569, 0.24034041166305542, -0.4342537224292755, -0.05842094495892525, -0.35704857110977173], [0.10868225246667862, 0.23240572214126587, -0.28453800082206726, -0.007584825158119202, 0.0029621985740959644, -0.5401967167854309, 0.033956486731767654, 0.2062617987394333, 0.0800861120223999, 0.23860734701156616, -0.14045430719852448, 0.16639171540737152, -0.030295640230178833, -0.28317129611968994, 0.0012122753541916609, -0.054505784064531326, -0.17052195966243744, 0.15894918143749237, 0.10469675809144974, 0.35915106534957886, 0.05330142378807068, 0.005414954386651516], [0.19488875567913055, 0.17079688608646393, 0.22577816247940063, 0.024106457829475403, -0.082825668156147, -0.37733304500579834, -0.2039979100227356, -0.18053993582725525, 0.0781574472784996, 0.20834042131900787, -0.13748618960380554, 0.14948950707912445, 0.18326157331466675, -0.12061472237110138, -0.1213839054107666, -0.042030103504657745, -0.25531959533691406, 0.19046597182750702, 0.028541410341858864, 0.22652855515480042, 0.1903517097234726, 0.13971073925495148], [0.015587560832500458, 0.012823134660720825, -0.21828454732894897, 0.20582368969917297, 0.2146102786064148, -0.16413669288158417, -0.047042425721883774, -0.008245572447776794, -0.051565878093242645, 0.0491974838078022, 0.01696024276316166, 0.05884016677737236, -0.19038374722003937, 0.07868090271949768, -0.024922523647546768, 0.24054108560085297, 0.2764132618904114, -0.10812976956367493, -0.11643462628126144, -0.11454684287309647, 0.15101319551467896, 0.14810925722122192], [0.021614041179418564, 0.39734649658203125, -0.24162110686302185, -0.09073051065206528, -0.004899044521152973, 0.47931233048439026, -0.12056660652160645, 0.03495815396308899, -0.11100605875253677, 0.04699341580271721, -0.21971075236797333, 0.001910613034851849, 0.10692494362592697, -0.10577978193759918, 0.2554086744785309, -0.22612228989601135, -0.011003096587955952, -0.017668524757027626, -0.16123224794864655, -0.1831250637769699, 0.02288675121963024, -0.3013020157814026], [0.03941846266388893, -0.30357128381729126, 0.1378747522830963, -0.022135555744171143, -0.10047044605016708, 0.20100945234298706, -0.033745259046554565, 0.004725941922515631, -0.3112271726131439, 0.023552894592285156, -0.06457383185625076, -0.03539052978157997, 0.0409260094165802, -0.5549446940422058, 0.2682439386844635, 0.01574690267443657, -0.0006402331055141985, 0.20540572702884674, 0.12424525618553162, -0.5918959975242615, 0.0034079719334840775, 0.35898667573928833]], "features.8.bias": [0.06750700622797012, -0.21974116563796997, 0.09928817301988602, -0.23675553500652313, -0.06697561591863632, -0.20694966614246368, 0.12578831613063812, -0.18633192777633667, -0.04499074071645737, 0.017481930553913116, -0.1165122389793396, 0.03966282680630684, -0.11810597777366638, -0.1838827133178711, -0.17854100465774536, -0.16775448620319366, -0.08505312353372574, -0.18462230265140533, 0.008415931835770607, -0.20830847322940826, 0.16335543990135193, -0.19590121507644653], "features.10.weight": [[0.16669107973575592, 0.08516248315572739, 0.02163095399737358, -0.2606198489665985, -0.34766513109207153, 0.06895540654659271, -0.03344867378473282, -0.14631152153015137, 0.042621709406375885, -0.2359744906425476, -0.3415037989616394, 0.12020692229270935, -0.12285611033439636, 0.031305983662605286, -0.583942711353302, 0.33739539980888367, 0.2857562005519867, 0.16920605301856995, -0.1668059527873993, 0.2335170954465866, 0.18599548935890198, -0.12317468971014023], [-0.13790634274482727, -0.06509522348642349, 0.2510092854499817, -0.25378772616386414, -0.36212295293807983, -0.06893780827522278, 0.05665963888168335, -0.11732702702283859, -0.265812486410141, -0.04651669040322304, -0.08498290926218033, 0.1207774356007576, -0.14712800085544586, 0.20672473311424255, -0.38633593916893005, 0.19627004861831665, 0.13329890370368958, 0.33475983142852783, -0.15839529037475586, 0.018992522731423378, 0.14121507108211517, -0.11003036051988602], [0.11311262845993042, 0.1848485916852951, 0.22476749122142792, -0.16176079213619232, -0.02994089014828205, -0.1678093820810318, -0.15495151281356812, 0.03046126663684845, -0.3181254267692566, -0.2695101797580719, -0.3819253444671631, 0.31229105591773987, -0.02692948840558529, -0.19419975578784943, -0.258084774017334, 0.016713837161660194, 0.3034508228302002, 0.11513607203960419, -0.003912874963134527, 0.10710460692644119, -0.13373389840126038, -0.1983509510755539], [-0.08912905305624008, -0.0004566951538436115, 0.2038138210773468, -0.3282735347747803, -0.20904727280139923, 0.06788681447505951, -0.09597165137529373, 0.034841641783714294, -0.038484420627355576, -0.1504715383052826, -0.1531113237142563, 0.08767388015985489, 0.04872765764594078, -0.1418885886669159, -0.25287526845932007, 0.13627822697162628, 0.26282578706741333, 0.15358328819274902, -0.17606742680072784, 0.2218027263879776, 0.017443161457777023, -0.09297038614749908], [0.2559264898300171, 0.11509186029434204, 0.044953662902116776, -0.016007203608751297, -0.1288432627916336, -0.11426003277301788, 0.18816453218460083, -0.10552620142698288, -0.2896673083305359, 0.138335183262825, -0.09842325747013092, 0.08988012373447418, 0.07006452977657318, -0.19337621331214905, -0.3989923298358917, 0.3297276198863983, -0.06904993206262589, 0.35353460907936096, -0.01959485560655594, -0.059061747044324875, 0.008119530975818634, -0.16663305461406708], [-0.054866593331098557, 0.021612172946333885, 0.16836656630039215, -0.07980835437774658, -0.2440868318080902, -0.0910663902759552, 0.0772167295217514, 0.14116647839546204, -0.1455167979001999, -0.23321408033370972, -0.4689185321331024, 0.04750656336545944, -0.11454856395721436, -0.01030266284942627, -0.3158802390098572, 0.1121646836400032, 0.08863911777734756, 0.29593363404273987, -0.1483435034751892, -0.09981057047843933, 0.08195571601390839, -0.4269244074821472], [0.17909887433052063, -0.14057233929634094, 0.29373931884765625, -0.01588638313114643, -0.298346608877182, 0.0005640107556246221, 0.11047130823135376, 0.17076396942138672, -0.09129468351602554, 0.02233070507645607, -0.17578370869159698, 0.06907977163791656, -0.09186354279518127, -0.12690797448158264, -0.363374799489975, 0.1966933310031891, -0.03045455552637577, 0.07511161267757416, 0.020417360588908195, 0.12365313619375229, -0.2041868269443512, -0.43545442819595337], [0.1058201789855957, -0.030721168965101242, 0.26591432094573975, -0.28373971581459045, -0.38016843795776367, 0.1293368637561798, 0.18049636483192444, 0.15689578652381897, 0.06378620862960815, 0.0029651469085365534, -0.42956769466400146, 0.2052757740020752, -0.0653228759765625, -0.056964561343193054, -0.2856941223144531, 0.09151265770196915, 0.15211352705955505, 0.26520591974258423, -0.022116398438811302, 0.2366451770067215, -0.09091224521398544, -0.4491579830646515], [0.17920774221420288, 0.008924059569835663, -0.0841711163520813, 0.049363091588020325, -0.21966208517551422, -0.05217389762401581, -0.07180847972631454, 0.0733741819858551, -0.09039077907800674, -0.17219917476177216, -0.2562895119190216, 0.1890130639076233, 0.16423442959785461, 0.061468541622161865, -0.28109249472618103, 0.1325785219669342, 0.12278558313846588, 0.268610417842865, -0.20680412650108337, 0.0946340337395668, 0.10120707005262375, -0.41470831632614136], [-0.07164715230464935, 0.0544530414044857, 0.259530633687973, -0.1362123340368271, -0.0454813614487648, -0.12579654157161713, 0.03173547983169556, -0.07625271379947662, 0.0455956757068634, -0.06422936916351318, -0.20652535557746887, 0.15437254309654236, 0.09938164055347443, -0.04030042886734009, -0.5593822002410889, -0.009135104715824127, -0.05260390415787697, 0.19231896102428436, -0.15737015008926392, 0.05831303820014, -0.1359531134366989, -0.29861968755722046], [0.022157328203320503, -0.16046588122844696, -0.09596695005893707, -0.35210904479026794, -0.3353026509284973, 0.15202349424362183, 0.1878066062927246, -0.05090180039405823, 0.0788624957203865, -0.22924283146858215, -0.3564673662185669, 0.1008894070982933, -0.2010972648859024, 0.058886587619781494, -0.26070716977119446, 0.3571934998035431, -0.09427721053361893, 0.047498416155576706, 0.1824486255645752, 0.10577376931905746, 0.0488559752702713, -0.24790367484092712], [0.04290710762143135, 0.11396675556898117, -0.034897055476903915, -0.0840560644865036, -0.24996165931224823, -0.2072460651397705, -0.00843153428286314, -0.043812140822410583, -0.28146934509277344, -0.2643245458602905, -0.2706679701805115, 0.1527804583311081, -0.10653176158666611, -0.1061096340417862, -0.5225607752799988, 0.36569643020629883, 0.20322559773921967, 0.21274487674236298, -0.14041732251644135, 0.20763514935970306, -0.16740933060646057, -0.263657808303833], [0.14121370017528534, -0.014584957621991634, -0.07514005154371262, -0.025186637416481972, -0.20473428070545197, 0.11205997318029404, 0.21522575616836548, 0.0029387474060058594, -0.24210751056671143, 0.05900603532791138, -0.2737285792827606, 0.2332470566034317, -0.12735982239246368, 0.03485962748527527, -0.31460151076316833, 0.08757462352514267, 0.29952043294906616, 0.17130514979362488, -0.17218507826328278, 0.02850499376654625, -0.21559953689575195, -0.15459191799163818], [0.27312251925468445, 0.12433462589979172, 0.2929127812385559, -0.045711081475019455, -0.1801786571741104, 0.1620488464832306, -0.14598621428012848, 0.11474516987800598, -0.1999780833721161, -0.05616920068860054, -0.15389586985111237, 0.04570121318101883, 0.04295063018798828, -0.14050377905368805, -0.1914152204990387, 0.22447428107261658, -0.004332606680691242, 0.1776142120361328, -0.0812293216586113, 0.011954131536185741, -0.07007142901420593, -0.41684266924858093], [0.019331924617290497, 0.06204737722873688, 0.23336420953273773, -0.16587874293327332, -0.016050396487116814, -0.21538427472114563, 0.0008837829227559268, 0.03730571269989014, 0.056475378572940826, -0.20786722004413605, -0.20946624875068665, 0.15360568463802338, -0.03414788469672203, -0.011281386017799377, -0.3424103558063507, 0.16343507170677185, 0.11495812237262726, 0.06606879830360413, 0.007202562410384417, 0.13595154881477356, 0.03063281625509262, -0.2722536027431488], [-0.05050245672464371, -0.124606192111969, 0.26416364312171936, 0.06039310246706009, -0.33832576870918274, 0.10741598159074783, 0.17577117681503296, 0.005841672420501709, -0.21512600779533386, -0.11911190301179886, -0.14780153334140778, 0.271240234375, 0.02285938896238804, -0.2030380219221115, -0.47051844000816345, 0.06632447987794876, 0.055787548422813416, 0.1686982661485672, -0.08931981772184372, 0.2222634106874466, -0.02181115560233593, -0.11603420972824097], [-0.06508558243513107, -0.04077702760696411, -0.09020349383354187, -0.1781044751405716, -0.3511224687099457, 0.15261641144752502, 0.09216660261154175, 0.15649273991584778, 0.04012076556682587, 0.07348410040140152, -0.2136559635400772, 0.22422878444194794, -0.14934967458248138, -0.007030412554740906, -0.41226857900619507, 0.2253185510635376, 0.009819063358008862, 0.25503501296043396, 0.0637408047914505, 0.21049629151821136, 0.09752746671438217, -0.19294121861457825], [0.042462993413209915, 0.20651750266551971, 0.2261408418416977, -0.12531059980392456, -0.34407439827919006, -0.1637294888496399, 0.1605190932750702, -0.11331444978713989, -0.2317643165588379, 0.048131849616765976, -0.4497992694377899, 0.16786158084869385, 0.04031309857964516, -0.16335712373256683, -0.49804097414016724, 0.048844482749700546, -0.08981529623270035, 0.23545563220977783, 0.180557519197464, -0.03155520558357239, -0.02451072633266449, -0.4166531264781952], [0.20780326426029205, -0.1862535923719406, 0.07583045214414597, -0.3074687719345093, -0.37917599081993103, 0.08132170140743256, 0.06373298913240433, 0.13536104559898376, -0.2828187942504883, -0.22344936430454254, -0.4700097441673279, -0.07050863653421402, -0.19425606727600098, 0.02711595594882965, -0.2284344583749771, 0.33818718791007996, 0.29888609051704407, 0.10863698273897171, -0.004579139873385429, 0.20083971321582794, -0.07942143082618713, -0.3963930904865265], [0.24025310575962067, -0.14900659024715424, 0.23607905209064484, -0.14315325021743774, -0.29061198234558105, 0.05961766093969345, -0.009312310256063938, -0.046920761466026306, -0.16333961486816406, 0.14042840898036957, -0.43740978837013245, 0.1944870501756668, -0.14737872779369354, -0.09251366555690765, -0.5123705267906189, 0.3132844567298889, 0.025069504976272583, 0.2796517610549927, -0.1884687840938568, 0.21313412487506866, -0.13715586066246033, -0.3933745324611664], [0.2757647931575775, 0.21912585198879242, -0.06359278410673141, 0.0235324464738369, -0.05204752832651138, 0.05433528497815132, 0.1049485057592392, 0.21126282215118408, 0.04215000197291374, -0.0236706230789423, -0.4075818657875061, -0.039027679711580276, -0.03771684691309929, -0.188517227768898, -0.5516389012336731, 0.4098926782608032, 0.17267130315303802, 0.16961045563220978, -0.023640992119908333, -0.000699589669238776, -0.21964207291603088, -0.11248709261417389], [0.11124002188444138, -0.1633816659450531, 0.16673871874809265, -0.14702528715133667, -0.0027812374755740166, -0.07364676147699356, -0.06364834308624268, 0.16432708501815796, 0.028430422767996788, 0.015960555523633957, -0.45872393250465393, -0.0922108143568039, 0.1183222308754921, 0.16154512763023376, -0.31815773248672485, 0.23538948595523834, 0.22449280321598053, 0.05015762150287628, -0.14935994148254395, 0.25732049345970154, -0.13287554681301117, -0.19513683021068573]], "features.10.bias": [-0.11519864201545715, 0.1010361835360527, 0.08777235448360443, 0.16910339891910553, -0.18768231570720673, 0.008119751699268818, -0.15561756491661072, -0.11846796423196793, -0.020257703959941864, 0.015858707949519157, -0.09392734616994858, -0.03379196673631668, 0.03750419616699219, -0.04395999386906624, 0.1027185469865799, -0.012279098853468895, -0.07951444387435913, -0.05587882921099663, 0.14123181998729706, 0.02354920282959938, -0.15420515835285187, -0.05877058207988739]}